-1.70438	-0.378397	-0.988906	-0.479694	3.39119	-6.64146	3.1872	-3.70148	-1.79678	3.0618	-0.499721	-4.68844	-2.763	-1.17096	-4.32998	7.7009	-0.92963	0.972109	-5.87489	-2.76057	-1.15779	-1.0162	0.22288	-0.951263	1.08859	0.563076	0.563052	0.570401	-1.11993	-1.55692	4.19901	-0.229443	-2.70288	2.83755	-1.62618	-1.83351	-4.86621	-0.442468	-0.759074	1.05198	-1.30871	-0.562235	0.262981	-2.12716	3.59359	0.277156	-1.98688	-1.42856	-1.48403	-2.67967	-2.01597	0.0692499	-1.2676	-0.0624309	-2.92503	0.272956	-2.17434	3.77424	-1.33614	0.215107	-0.870839	-0.965233	0.225193	1.28401	-1.68404	-4.66224	1.22054	-0.432385	-1.56328	0.972662	-0.578046	-3.44596	4.90407	-4.37609	-0.415253	-2.15717	0.545043	-1.35914	-3.53668	1.63399	-0.718686	0.648459	-0.154706	1.26525	-2.07177	-3.51996	-2.51533	-0.273591	0.807202	2.22963	-0.115114	-2.61819	0.557674	1.71247	-5.78737	-1.99271	0.401042	-3.85207	3.81786	-4.29421	0.823729	-2.75107	1.63437	-2.73902	-3.18287	4.46539	-2.21514	0.856754	-1.63556	-4.89465	1.50271	-2.12311	-2.33735	-3.79767	0.169842	2.04433	-0.311239	-0.684924	-1.76659	-3.10022	-1.33781	-1.72583	-2.6888	0.824251	-1.16339	1.64439	-0.730384	-0.754133	-2.43888	0.47249	-1.31571	-1.32756	0.478539	-0.526658	-2.24452	2.11108	-1.5036	1.98537	-0.851084	-0.97765	0.589961	-2.38281	4.22064	-0.15706	-0.852263	-1.51431	-2.7797	-0.613128	0.135327	-1.9866	-0.202679	0.636249	0.45766	0.252628	0.0414572	0.676366	-0.806097	-0.359571	-0.497824	-0.462562	-1.62761	-0.391246	-2.20541	-1.68796	3.0829	0.521533	0.556271	-2.8587	3.24045	-4.61859	-1.5936	1.55102	-2.34323	-2.23636	0.482939	0.473939	0.0608398	-0.22687	-2.01157	1.81317	0.107722	-1.68998	-3.40245	-2.75429	2.61071	-0.561981	-0.217307	-1.88361	1.13605	-1.78514	-0.415432	-0.647528	-1.48756	-1.14904	-1.93867	0.418562	0.243447	3.51243	-0.080545	-3.06209	-2.26116	0.923025	0.73145	-0.853051	1.7068	-3.1933	-0.492278	-0.630155	1.86846	-1.79867	-1.24746	2.53606	-0.416884	-1.45286	-0.510845	-3.52799	4.29079	-3.19526	-2.32287	-1.07368	-0.759438	-1.62459	3.66737	0.759692	-1.22238	-1.46081	0.752264	-0.543892	-2.40202	-1.59835	1.02161	-0.0761758	-0.727526	-0.116309	-4.26532	-1.03953	-3.16232	0.11719	-2.16964	4.34603	-1.04551	-3.31234	1.38694	-0.410757	-1.23384	1.20438	-2.11967	0.866447	-2.12919	-2.74766	0.519064	-1.28594	-0.114956	-0.497545	-2.26356	2.8343	-2.93816	1.13891	-1.82497	-1.6746	0.962883	-3.29998	-0.625533	1.46431	-1.75068	-1.62758	2.51671	-2.33295	-2.42177	-1.98715	0.534121	-3.47162	-4.10312	-4.10654	-1.87258	0.730876	0.614185	-1.51248	2.17174	0.726292	-2.24063	-3.66197	0.472708	-4.77261	-2.52058	4.72111	-0.440625	0.851217	-2.31043	-2.57188	-0.440461	0.225911	-0.192202	-0.181897	-0.455408	-0.0966018	0.307824	0.752234	-0.260355	-0.420002	-1.41301	-0.964243	0.727792	-1.23512	0.97233	-0.888899	2.05831	-1.52247	-1.95177	-1.92215	-3.02041	2.48983	-0.589765	3.13451	-2.7734	-4.35562	-0.323179	-1.87908	-0.36614	-3.76134	1.89797	-0.137037	0.172348	0.929811	0.00227035	-2.72973	-0.207678	-1.00485	-1.17278	-1.37882	-1.24903	0.673513	-1.59188	-2.17266	2.68475	0.0274395	-1.01704	0.0320047	0.719824	-2.55084	-1.94255	-2.47006	-0.141095	-0.714354	-1.64225	1.43204	1.44362	-0.933579	-1.50366	-1.06201	1.96135	-0.413434	-1.26585	-1.47093	-0.67822	-1.70874	-1.52235	2.88782	0.350529	-1.36959	4.58142	-2.196	-3.9343	0.838695	-2.02792	0.688808	3.7748	-1.97902	-3.83848	-1.99768	0.357696	-1.09451	0.728856	2.99636	-0.129062	-1.88955	-0.737619	0.14812	-0.454916	-2.32947	-0.890834	-0.613808	-3.61798	2.09874	-0.00617371	0.969328	0.825365	-0.0477364	-1.4914	-0.985506	-1.54919	-0.0628812	-2.72132	1.49966	-1.14271	0.272481	-1.40583	1.31608	-0.193119	0.0948838	-0.315334	-0.20471	0.244781	-0.321052	0.372535	-0.132205	-0.231932	1.00168	-0.283867	-1.47391	-0.495262	2.04022	3.6587	-1.53899	-0.624279	-0.486274	-2.5928	-0.934537	-0.830932	-0.548179	-0.289246	-0.314957	-0.364637	-1.11658	-1.0166	-0.425685	-1.12764	3.34227	0.101733	-4.83613	-0.956859	-0.606625	0.26763	-1.46469	-1.31349	0.81636	0.249079	1.15073	-0.171896	-0.959225	-0.517669	-0.299898	-0.920561	-0.787595	2.62422	0.639932	-0.917015	0.316206	-0.38327	-0.683387	-1.12183	2.83167	-1.50241	-1.0264	-2.30002	3.59073	-0.39235	-3.16447	-3.68865	-1.36129	-3.18789	3.9236	0.63224	-0.702842	-3.07317	-3.2283	2.67003	-1.91829	-2.57503	1.39631	-1.22252	2.99828	-0.122093	0.801615	-1.1231	-0.954759	-0.93315	-3.17962	-2.54963	-2.06784	2.85641	-0.628306	-2.14161	0.419741	1.14641	-1.842	0.121281	-0.342369	-1.60511	-1.75519	-3.23368	-1.63326	-2.11267	-2.20805	2.37894	-5.48047	5.99187	0.593637	0.235986	-1.89215	1.47718	-3.03012	0.458664	-1.88783	-4.21629	2.54396	1.91426	-2.00187	-4.71614	-4.6763	-1.55322	3.1001	-2.27377	-1.94248	-2.61712	-0.457311	1.24062	1.2046	-3.91271	-2.86265	-2.51843	-1.54008	-1.52902	-2.44512	0.0827204	0.47394	-3.49302	0.19073	-4.28214	1.59012	-1.55877	0.958227	0.716121	-0.652227	-2.79955	4.5604	-0.273965	-1.00484	-5.77581	-2.07479	-0.291694	0.73057	-0.517693	0.779543	-1.86629	0.702502	-0.962459	-1.51617	-1.06674	-4.01085	2.38677	1.56678	1.29784	-0.564264	0.417283	-2.98667	-1.79297	-1.04422	-2.3705	-0.414137	2.04804	-1.94552	-1.80507	-1.78438	3.54714	-2.76569	0.942491	-0.771177	-0.111647	-4.13698	-1.11005	1.1181	-2.54617	1.80919	-1.11883	-3.31077	-2.17133	1.96419	-2.66501	0.804088	-1.74932	-0.731585	-2.15749	-1.35699	0.705823	1.27679	-2.21056	-0.278547	-3.34495	-0.467024	-1.40546	-1.88256	-2.09584	0.453629	0.62612	3.32476	-1.87562	1.84987	0.188385	-1.05975	-1.38955	-0.71777	-2.78565	-0.163706	2.05752	-2.55528	-2.68436	1.46296	-0.872357	3.21215	0.0809006	-0.569055	0.273969	0.0927876	-1.29582	0.189334	-0.681016	2.3498	-0.0388004	-2.07137	0.0884198	-1.32465	0.454669	-2.11559	-1.76388	0.554531	-1.03823	3.37769	-0.515741	-5.54338	0.453365	-0.845606	-2.38543	2.90596	0.443261	-1.9828	0.00325155	0.551737	-0.450532	-0.638084	-1.9873	-1.25115	0.68448	-2.12908	0.522122	-1.51318	2.88374	-1.37235	0.0587425	-1.059	-0.0839897	2.10603	-4.20211	-3.18531	-1.53355	-0.455429	0.632338	-2.40901	-2.28521	1.38855	-1.67895	-1.49277	-1.98199	4.06691	0.832435	0.154781	-0.310678	1.25109	-0.353881	-2.4683	-0.820831	-1.16932	1.14051	1.10376	-1.04957	-1.72639	-1.659	0.4171	-1.00997	0.509741	0.0740728	0.763494	0.292238	2.1781	-1.51381	1.47798	-1.05849	-1.47265	-2.47879	-1.43878	1.04195	-0.485885	-0.183169	1.58362	0.431593	-3.07557	-0.332012	0.00939435	-0.501136	-1.84716	-1.73008	-0.563417	-0.387237	-3.0298	3.05409	-1.01002	-0.658437	0.82696	-1.72959	-2.21334	-2.84313	-1.76443	4.52988	2.28629	-1.43686	-0.890775	-1.34319	-2.22023	-0.809343	-0.549251	-1.58435	-0.916288	3.3509	0.17378	-0.664032	-1.06194	1.30195	-1.36206	-1.58151	-0.879802	1.78834	-0.802752	1.47949	-1.02867	-0.960421	-1.3131	-0.1012	-1.4502	0.471954	-1.2676	1.47383	-2.8632	-0.358421	-3.90555	-0.337263	3.19125	-1.65028	-5.57581	3.14403	2.46005	0.327359	-0.614896	0.0600995	1.5128	-1.35844	0.397351	1.40999	0.368705	-0.0754035	-0.272968	-1.33659	0.291268	-2.13706	1.61612	2.3204	-2.32819	-2.02937	-0.250356	0.8808	-0.236089	-1.65802	-1.35976	-1.14211	-1.60843	3.00456	0.628561	0.0948082	-0.506454	0.65234	-2.31168	-1.68145	-1.52889	0.104656	1.35041	-1.92661	-1.3893	1.65586	0.099881	-1.24267	-1.30463	-3.82649	1.35739	-1.6188	-0.142723	-3.0188	2.98508	1.0772	-2.98525	1.27175	-4.26852	-1.37638	1.38205	0.27992	-0.901829	-1.84382	-2.19007	-1.12262	0.255357	-0.11166	1.20986	-1.21921	0.390199	-1.33855	-1.54254	-1.09177	0.205344	1.18816	-0.670298	-0.644993	-1.19083	-1.40296	-0.422224	-1.35655	-1.41302	2.69591	-0.706902	-1.4813	1.93753	-1.08949	-3.0222	-0.759587	0.491961	-0.162891	-2.03584	-0.484988	-2.823	-0.315187	2.76474	0.923746	-0.99251	-0.825272	-1.23055	0.262855	-2.13202	1.11461	-1.26082	-0.546675	1.73723	-0.82178	0.228865	-0.708638	0.350549	2.31139	-1.91	-0.443323	-1.43539	-0.438268	0.527713	-1.78948	-1.48372	-0.53367	0.745665	0.879599	0.519164	0.718828	-0.728305	-0.959377	-2.03204	1.35629	-3.78882	-0.465983	-0.687594	1.57512	-0.307521	-2.13509	-0.654089	1.88128	-0.155406	-0.646977	1.10486	-0.4229	0.187103	0.702161	0.00282402	-0.828523	-0.387901	0.0813316	0.421533	-0.416317	-0.412282	-0.668933	-0.035678	0.101227	-0.638459	-1.47411	-2.016	-0.489822	-1.89675	1.32348	-1.09915	-1.328	-1.37828	-2.19729	1.30874	0.613429	-2.6081	0.318061	1.28025	-1.39872	-0.350201	-3.51561	-1.75154	-3.05953	-1.29137	1.6642	2.35045	2.55056	3.08513	-2.92707	-7.23782	-1.6703	0.449373	-1.26511	-0.917179	-2.0665	-0.349533	-3.59772	1.48755	3.5962	-2.157	-1.95832	2.45453	-2.90138	-2.35153	-3.10869	2.92715	-1.12325	-1.70336	-1.13006	-1.04342	-1.01957	-1.14695	2.20442	0.14222	-1.03126	-2.42777	-1.35732	2.88729	-0.158091	-3.12036	0.298072	2.16069	-0.286125	-1.66341	0.689681	-3.70331	1.55671	-1.07345	-1.75477	0.244257	0.00404221	-2.42249	-1.41449	-4.70647	1.86607	-3.79703	-3.9577	1.0852	-5.59387	-0.0130337	-1.55854	1.58399	2.12722	-0.242062	0.211929	-1.89826	-1.57437	-0.696953	-2.46637	-1.11479	-1.03591	-1.139	0.185877	-2.70016	-1.21635	0.0801637	0.106156	3.24725	0.579689	-4.80666	-3.27403	0.773895	-4.47332	-0.405299	-0.668411	3.84724	0.322879	-3.51413	0.355778	-1.31353	-7.7267	-7.63882	-9.39137	-8.875	-6.79405	-3.8619	-10.2894	-9.09863	-6.50566	-1.15254	0.255468	-0.281412	0.19378	0.507732	-0.0955459	0.00546617	0.244883	0.0640365	0.273735	0.404757	-0.0352302	0.0920463	0.255862	-0.0109787	0.314822	0.0336524	0.19221	-0.062342	0.143651	-0.0255205	0.163058	0.041244	0.133554	0.0668397	-0.0029468	-0.00658435	0.298084	0.0578002	-0.211172	0.085464	0.0355899	0.431153	0.110896	0.0524757	-0.0669246	0.0601285	0.363173	0.258521	0.236786	0.558694	0.125641	0.0802762	0.0607829	-0.0431324	0.161848	0.0947607	0.167571	0.323082	0.210086	0.269641	0.184269	0.0676546	-0.109251	0.192516	0.235046	0.250379	0.212349	0.261925	-0.0054353	0.249994	0.0482568	0.0706291	0.0162934	0.241074	-0.124845	0.00866595	0.280876	0.135476	0.285545	0.209698	0.173081	0.207834	0.214234	0.00922155	0.315293	0.04287	0.282133	0.155667	0.200967	0.0719055	0.133978	-0.00544855	0.0410549	0.0655265	-0.0157699	0.0546965	0.241679	-0.0815295	0.115301	0.176428	0.217808	0.199209	0.155549	0.0518174	0.0929407	0.134489	-0.262068	0.212411	-0.0480752	0.240882	0.257519	-0.180045	0.0498769	0.188911	0.0528739	0.189408	0.0441733	-0.129626	0.257933	0.162846	-0.141631	0.199104	0.0759685	0.132115	-0.076363	-0.0775114	0.28326	0.087263	0.225028	0.136708	0.139526	0.106139	-0.11406	0.0732568	-0.0727266	-0.000730865	0.0103152	0.360746	-0.0756708	0.0576488	0.0871336	0.0202501	-0.00149711	0.17219	-0.0478629	0.187494	0.14273	0.068537	0.0924058	0.159221	0.0766853	-0.0791814	0.131085	0.0543964	0.078351	-0.0546518	0.083655	-0.0576687	0.169913	0.256886	-0.0812434	0.105933	0.0321316	-0.310599	0.0284187	0.0289898	0.225227	0.183141	-0.026436	0.120001	0.180621	0.150132	0.174773	0.136522	0.139957	0.0855411	0.110144	-0.122888	-0.103371	0.087369	0.0862389	0.0383508	0.0136909	0.0423239	0.374277	0.0682542	0.163302	0.271753	0.0460694	0.211856	0.113135	0.002163	0.172926	0.215036	0.162591	0.0839261	0.133586	0.0398274	0.0632699	0.114557	0.0947582	-0.0119677	0.243514	0.0844742	0.197766	0.0831855	-0.02548	0.00409291	0.172342	0.200085	0.319427	-0.309123	0.0852492	0.0523039	0.0437939	0.134264	-0.0246229	0.0485353	0.212359	0.301233	-0.125379	0.213618	-0.0595645	0.166515	0.0419126	0.00500914	0.267692	0.0694524	0.256792	0.108915	0.191336	0.078299	0.0178982	-0.00984142	-0.101093	-0.0613308	-0.0403431	0.368395	0.0103373	0.0645557	0.00528013	0.0528244	0.00683548	0.209807	0.00958128	0.247816	0.0377602	0.0105829	-0.00633394	0.0378659	0.0425878	0.0222074	0.104421	0.133292	0.0443928	-0.104079	0.0593832	-0.0656862	0.134335	0.256862	-0.0156831	-0.0357834	-0.00452162	-0.316815	-0.0110498	0.0083433	0.311337	-0.0172901	-0.130022	0.173438	0.159401	0.170193	0.197521	0.0123044	0.204436	0.121051	-0.0220764	-0.0261422	-0.114173	0.00617376	0.0718734	0.0999259	0.112496	0.124733	0.515432	0.0175327	0.0511691	0.223262	0.0423814	0.193314	0.132009	0.0214919	0.199427	0.246227	0.124879	0.0806662	0.150651	0.0754472	0.0677823	0.20079	0.122455	0.0423529	0.263621	0.0745722	0.16828	0.166882	-0.143232	0.00986148	0.197408	0.193239	0.216299	-0.00560792	0.211404	0.28077	0.0545159	-0.0417314	-0.00736355	-0.261167	-0.00385141	0.0924079	0.0501987	0.141752	0.165735	-0.140564	0.0551066	0.0277953	0.306182	0.108247	0.382117	0.119696	0.182286	-0.0902577	-0.0654878	-0.229299	-0.0366928	0.0033611	0.0231766	0.0890699	-0.0587175	0.0459112	0.0803771	0.187637	0.0585653	0.24071	0.0245218	0.153435	0.13334	0.267238	0.252443	0.194472	0.0465909	-0.107179	0.212886	0.011864	0.195988	-0.144977	-0.236553	0.0874067	0.18316	0.39266	-0.0384834	0.0279128	-0.0877564	-0.162095	0.0115829	0.0589236	0.367754	0.0847796	-0.0087763	0.363652	0.0287469	0.108417	0.00584989	0.16887	-0.0363614	-0.0751969	0.435336	-0.0526181	0.0871145	0.176888	0.301368	0.0254728	-0.0414419	-0.0453532	0.177075	0.0189491	0.200181	0.367472	0.0677929	0.0652935	-0.0348868	0.0374844	0.267688	0.0597008	0.0638171	-0.0340385	0.247105	-0.193961	0.0286701	0.0496496	0.263019	0.405442	0.174779	-0.0336641	0.132343	0.108235	-0.125265	0.0481226	0.08774	0.123661	0.123205	-0.0241163	0.0543364	0.527558	-0.325578	-0.106864	0.386613	-0.389213	0.135452	0.456382	-0.117062	-0.152041	0.473376	-0.18963	0.0901155	0.0248857	0.224582	0.0361416	0.149798	0.00091486	0.170425	-0.183377	0.0242087	0.0799152	0.192755	-0.159606	0.36217	-0.0980293	-0.238691	0.0386613	-0.145627	0.507936	0.0610693	-0.0944447	0.0936091	-0.00908065	0.182318	0.413923	0.478218	0.668855	0.0350057	-0.195861	0.0396755	-0.196497	-0.0350615	-0.289231	-0.151064	0.290523	-0.0130652	0.251696	0.0647933	-0.295455	-0.254106	-0.26019	0.0713464	0.132311	0.0837137	0.19011	-0.106473	0.458051	-0.000252308	0.0238325	-0.399477	0.405049	-0.230691	-0.199239	0.609104	0.0253977	0.302346	0.141529	0.151703	0.237739	0.0973597	-0.153265	-0.0124777	0.242362	0.384248	0.0329942	0.207625	-0.0371559	0.00831785	0.0305059	-0.0337272	-0.257904	-0.0949372	-0.142122	0.0765227	-0.199137	0.0390752	0.0403181	0.329964	0.205295	0.0695295	-0.153891	0.0268389	0.0158813	-0.574356	-0.0290805	-0.161415	0.256571	-0.178371	0.53999	0.321324	0.231029	-0.0394915	0.133328	0.00476692	-0.195416	0.0765641	0.78241	0.374101	0.442111	0.405052	0.178547	0.326843	0.0590147	0.397839	0.166951	0.449246	0.0708415	0.053561	-0.00133267	-0.184245	-0.040321	0.0992578	0.334909	0.284264	0.468125	0.353139	0.0598316	0.0849941	0.185058	0.033796	0.116928	0.204113	0.0975837	0.576165	0.161232	0.430444	0.377732	0.100152	-0.153901	0.0586744	0.164233	0.209658	0.194021	-0.233802	0.220138	0.214191	0.0906836	0.590581	0.0773365	-0.104232	-0.0808775	0.245385	0.0949955	0.226428	0.0248545	-0.158303	0.454469	-0.0328977	0.198039	0.207986	0.287545	0.0763435	0.0250084	0.290448	-0.343672	0.286884	0.143044	0.0232974	0.180345	0.079221	0.186554	0.786435	0.174727	0.1361	0.318425	0.211952	0.632579	0.0315708	0.161668	0.216458	0.101181	-0.0361047	-0.0552782	0.240735	0.0441447	0.0903512	0.332907	0.130911	0.319139	0.251377	0.297529	0.0237279	-0.00121699	-0.573897	-0.031459	0.0896786	0.675893	0.259031	-0.174062	0.317379	0.204699	-0.0115249	0.210408	-0.192394	-0.295317	0.120408	0.805579	0.069914	0.459923	0.0882053	0.117048	0.229588	-0.0295099	0.634147	-0.0288917	0.549711	0.258888	0.162361	0.0126888	-0.149454	-0.323877	-0.0629522	0.0440206	0.00655516	0.438773	-0.0172501	0.0752698	0.041084	0.418744	-0.019567	0.362573	0.066989	0.345052	0.339714	0.205373	0.17166	0.179083	0.160645	-0.155471	0.207233	0.0816186	0.176332	-0.0142927	-0.244268	0.00104982	0.256492	0.359278	0.31762	0.0504748	-0.322013	-0.406052	0.143268	-0.0170595	0.6411	-0.025691	-0.371282	0.457919	0.0203784	0.281682	0.463466	0.23795	0.176245	-0.125577	0.235277	-0.269649	0.02829	0.128845	0.0904489	0.20369	0.162159	0.134818	0.807183	0.0835274	0.285759	0.583321	0.148082	0.535974	0.0250018	0.107222	0.487992	0.230793	0.0283689	0.048993	0.498464	0.0271903	0.0678952	0.429966	0.172254	0.0831952	0.450429	0.106681	0.199461	0.108379	-0.622326	0.081026	0.354615	0.552713	0.695214	-1.44673	0.115248	0.512258	-0.396802	0.0472537	-0.202051	-0.382615	0.361713	0.737411	-0.701192	0.0442028	-0.0196215	0.0117845	0.208689	-0.234008	0.783747	-0.388429	0.544594	-0.0191336	0.249037	-0.20269	-0.0559442	-0.328874	-0.304409	-0.695325	-0.257706	0.606278	-0.871186	-0.00972064	-0.355943	0.300304	-0.245905	0.288895	-0.345601	0.154959	-0.174909	0.00522509	-0.113094	0.358816	0.0644866	-0.17165	-0.0359798	-0.151821	0.214032	-0.442338	-0.210636	-0.122584	0.10365	0.704809	-0.616147	-0.576217	-0.716116	-0.943646	-0.257627	-0.151785	0.569093	-0.136242	-0.807452	0.524866	0.144849	0.187958	-0.0215443	0.280003	0.0350662	-0.4475	0.182542	-0.0272808	-0.246459	0.0549258	-0.00430175	0.508025	0.210265	-0.0624182	1.19279	-0.0719112	0.511583	0.523826	-0.161906	-0.00796201	0.138775	-0.304622	0.200578	0.105052	-0.0616861	-0.0298944	0.515878	-0.165857	-0.0248306	0.189955	0.0911422	0.0502803	0.421368	-0.506283	0.155439	0.0201003	-0.877925	0.181681	-0.129706	0.25884	-0.0304744	-1.12567	1.79074	1.93705	0.67406	2.90931	0.579382	1.06112	1.92697	-0.716018	1.96299	-0.479369	-0.35844	1.12351	2.65251	-0.548013	-0.935347	-0.997897	0.0933466	2.24367	0.412939	-1.2659	0.839284	1.64622	1.09684	1.9734	-0.267776	0.0528513	0.490684	1.10552	0.467834	0.516686	0.361478	1.1257	-1.07604	3.62722	0.34825	1.00269	-0.170438	2.3736	1.08072	0.175832	2.18212	0.945706	2.00357	-0.560227	0.191927	-0.0156525	1.52712	0.80443	-0.810529	1.31418	-0.66993	-1.35534	1.21821	1.31395	1.78674	3.01262	-0.147119	1.46443	1.8004	2.0137	3.8159	1.02061	-0.0875897	-0.934205	1.94302	1.50416	-0.752114	1.32117	1.43134	-0.784638	0.810442	0.349742	-2.10853	-0.06414	0.716545	1.58252	1.62202	-1.53079	0.851993	-1.03796	2.10188	4.44929	2.39021	2.38856	1.10691	1.01998	0.905598	0.484551	2.31697	0.200915	1.73819	-0.845931	3.23579	0.91274	1.40567	0.327655	2.59463	-3.38569	2.18339	-1.43276	1.58025	2.26385	0.80875	0.239921	1.06791	-0.833466	0.530997	0.549182	0.167302	0.586073	0.838054	-0.579508	0.625769	0.325067	1.39334	0.390329	2.21372	0.494222	0.907964	0.861785	-0.0923043	-0.41323	-0.347342	0.150072	1.22004	0.226107	-1.02888	0.293649	1.41481	2.1254	0.887059	1.08645	-0.295832	1.10313	2.37823	1.66432	1.43149	2.48676	0.61478	-0.174488	0.590292	-0.295402	1.49542	0.426307	0.174487	1.64479	1.90028	2.59655	0.108531	0.853264	-0.130785	-0.46197	1.52415	1.83467	2.27335	1.64582	0.812031	2.03432	0.45159	0.692565	0.187229	1.36761	-0.0310252	0.21888	2.19184	-0.286097	1.27887	1.37358	1.6817	-0.751277	0.357196	-0.133879	0.871571	-0.0850942	1.28533	1.55113	1.16587	0.432715	0.173982	0.439966	1.23783	0.964993	0.371945	0.498924	1.68906	-0.452705	0.596085	0.612994	1.53136	2.33768	0.563968	0.586963	0.911962	1.02623	0.211452	0.837865	0.412885	0.961892	-0.123035	-0.4618	1.89331	0.106177	1.77715	1.72865	-0.15391	0.782606	0.176359	-3.39342	1.52738	-0.56197	-0.180599	1.01051	1.09482	-0.496593	-1.56742	-0.36154	-0.410131	1.85133	0.0271261	-1.10547	0.381673	0.838973	1.0167	2.21162	-0.993807	-0.370148	1.05941	0.840826	0.650034	-1.4113	-0.236026	1.02157	-0.593781	2.2059	-0.763794	0.469276	-0.454622	0.73743	0.904095	-0.234587	1.97585	0.936694	2.01682	0.218914	-0.542079	-0.857563	0.70143	1.81355	-1.18089	2.20857	1.12843	-0.0779822	0.756428	0.0887377	1.42558	2.00382	1.39867	1.25273	1.45221	1.37071	2.9514	0.349769	0.090968	-0.284633	1.19983	1.13267	-1.51814	0.744069	1.81104	-1.65612	0.171013	-0.222046	-3.11146	-0.323056	0.216219	1.23355	1.16419	-2.40296	0.443952	-0.719842	2.25641	2.88802	2.39802	1.98028	0.184905	0.570638	0.508601	-0.719849	1.61059	1.16148	0.0991712	-0.956655	2.61093	0.39004	3.96179	0.521991	2.04665	-3.76774	-3.89496	6.33835	0.00367833	-0.858065	-0.205167	2.71553	-0.673729	0.179285	-0.125706	1.36386	3.82319	0.406958	0.565362	1.59476	0.765333	-0.572502	-1.14009	-0.0974369	-0.573734	1.7265	-1.49036	-1.26776	-0.335355	1.15539	2.11865	2.29857	0.183164	0.645911	4.03838	0.535132	-0.51223	-1.19725	-1.03926	-0.373367	1.25575	1.42019	0.181212	-0.0383843	0.707569	0.328572	0.137533	-0.793469	1.13249	1.43495	-0.629409	0.35341	-1.30661	-0.990345	-0.565733	-2.05521	3.1229	0.636162	0.380664	0.414414	0.91815	-1.55535	-0.903368	0.317372	-0.144925	-0.00281272	-0.353029	0.968145	3.439	0.0745447	-0.161921	-0.172185	0.584466	-0.442823	-0.197693	-0.566444	-0.807234	-0.653572	-0.390126	0.572588	-2.73411	1.10096	-1.1002	-0.15322	0.721372	0.983827	-0.0162139	0.294192	0.111603	1.67009	0.223341	0.266216	-0.583898	1.20756	0.128586	0.803652	0.256045	-0.846492	1.437	1.24796	1.25304	-0.980049	-0.738003	-1.90934	1.89082	0.0434823	0.632665	-0.507098	1.23676	2.38174	-0.407483	1.49563	1.09326	-0.0748495	1.09839	0.0510396	0.57273	-0.411822	1.46129	0.193895	1.33728	-0.184899	-0.263859	-0.0659274	0.55919	0.741065	-0.222212	-0.844647	0.138318	1.05387	0.801522	0.798567	0.499325	-0.00854946	-0.288608	0.497565	0.0415428	1.14465	-0.270777	0.301102	-0.207065	1.22176	1.26956	0.978626	1.21603	3.18354	0.222847	-0.533942	0.394054	0.0192633	1.04162	0.146606	0.0613534	0.677553	0.718035	0.635292	0.0609939	0.149832	0.0560423	-0.555311	0.588516	0.567269	0.714691	1.96146	0.341577	2.40011	1.01107	0.687813	0.722003	1.14649	-0.792691	-0.390731	1.91711	0.919052	0.328651	0.473456	0.806497	0.116901	0.50179	-0.532219	-0.504244	0.0317476	1.0908	0.765122	1.25789	-0.793365	0.348605	-0.147078	0.826451	1.24084	0.771153	0.605324	0.507843	-0.0668061	0.471693	-0.0195883	1.69453	0.704897	0.555705	0.220359	1.20999	0.398506	-0.579943	0.417745	0.190151	-0.327487	0.951452	-1.66788	1.44875	0.876867	0.167401	0.0644686	0.167234	0.157298	0.0112683	-0.132613	0.255098	0.2453	0.557014	0.173253	1.14579	0.501035	0.142131	-0.272129	0.836544	0.72667	0.715974	-0.492118	0.61549	-0.341144	0.399381	0.537463	0.845403	0.179326	-0.241675	0.101123	0.842534	0.897664	0.857446	0.524323	0.109961	0.524155	0.818324	0.885168	0.27096	0.67614	0.469303	0.00556444	0.788732	0.200818	1.2454	0.0809111	0.0919652	0.690698	0.718283	2.31978	-0.324715	0.110512	0.417626	0.966688	0.468943	1.02077	0.653848	0.592207	0.153043	1.80611	0.494012	0.507631	0.231243	0.463486	-0.428002	-0.822844	1.02045	0.778306	1.06348	0.899056	1.2538	0.212714	0.440182	-0.208123	0.834674	-0.0431242	0.83976	0.320475	1.11404	-0.206263	0.29767	0.0437908	0.819832	0.307027	0.51955	0.746038	0.62581	-0.437268	0.27235	0.170155	1.08414	1.90276	0.101926	0.173375	0.329204	0.332347	0.248135	1.05632	0.530825	-0.663413	3.438	-2.91213	0.703625	0.413611	1.84559	-0.240222	-0.296092	0.759675	0.315607	-2.68391	-2.28089	1.30656	-0.111633	0.273182	-1.50171	-0.242992	0.770301	1.04122	1.65573	-0.34201	0.478586	1.17567	-0.767032	0.689764	-1.7274	-0.957439	-0.323354	2.7572	-0.431701	-0.163374	1.53164	-1.98064	0.43841	0.959366	-0.470195	0.176935	-0.0169259	-0.682588	-0.728778	-0.694711	0.264137	-0.340916	-0.643557	0.0965327	1.26112	-0.116271	-0.115482	-0.683044	1.14442	2.96388	-1.96406	-0.341604	2.49884	-1.23505	-0.503996	0.432056	1.64178	-0.0137677	1.73053	0.220371	1.96063	-0.0700664	-1.16177	-0.139089	1.15813	1.56882	-1.35365	-0.397003	-0.713503	0.323267	1.35983	-1.36597	-0.186858	-0.0552783	3.84113	-0.700108	0.208184	1.19792	-0.492025	-1.32507	0.799324	-0.112657	1.3459	0.620887	1.2484	0.202976	-0.0424706	0.150366	-0.136859	-0.20634	0.23796	0.979282	-0.698401	-0.172695	-0.274448	0.91159	4.28715	0.402052	-0.510914	0.27239	0.630707	0.518487	0.78687	-0.837541	1.06629	-0.482206	-0.51972	-0.281727	-1.04067	1.34738	0.501293	0.756095	-0.291709	-0.497095	0.767608	-0.0215725	1.57037	-0.471738	0.991319	0.400839	0.728273	-0.308635	0.267666	-2.52609	0.958901	-0.174725	0.202354	-0.283083	0.36517	-0.141722	0.458312	0.323818	0.0192105	0.965529	0.478462	0.139824	-0.436102	0.677886	0.467587	-0.719333	0.197562	-0.362518	0.709682	0.113285	0.601302	-0.810187	-1.42199	-0.664876	0.209287	1.79208	0.248676	-0.35119	-0.117643	-0.401083	0.099314	-0.610296	1.24523	-0.82805	-0.0628735	0.888258	-0.613031	0.12843	1.05928	-0.0123357	0.819554	-1.25678	0.842605	0.0233083	-0.39808	0.0929983	0.577809	0.925224	0.161183	0.288403	0.387093	0.0591435	0.106193	1.50212	0.15435	0.432223	-0.914788	0.165345	0.912392	-0.048683	0.208864	0.152936	0.569985	-0.585282	-0.129347	0.240953	-0.129297	2.15298	0.329782	-0.64052	0.369648	-0.231413	-0.307777	-0.0783149	0.643266	0.453076	1.18591	-1.41657	-0.667043	0.607105	0.0696062	0.184461	0.808698	0.869913	0.769037	-0.290636	-0.802372	-0.343567	-0.0876072	0.0656372	-0.161039	-0.267064	-0.283317	-0.245276	-0.248409	-0.264102	0.217384	0.251124	0.223837	1.41115	0.0528349	-1.14073	0.12871	0.684781	-0.595699	-0.212309	-0.114236	-0.357688	0.112901	-0.205244	-0.457931	-0.0669828	-0.398189	-0.266094	-0.564918	0.394082	-0.00645454	0.102696	-0.392111	-0.142188	-0.437225	-1.08365	0.494205	-0.508959	-0.416279	0.272923	-1.09022	-1.05386	0.734049	-1.33448	-0.501837	0.0903412	-0.00624985	0.545324	0.557441	-0.757909	1.02318	-0.118863	-0.75018	0.168007	-0.0959139	0.448596	-0.4605	0.83087	-0.818864	0.0604054	0.232863	-0.123971	0.0380462	-0.0863713	0.252169	-0.240668	0.153731	-0.673936	-0.0923644	-1.40667	0.572736	-0.402835	-0.478784	0.20834	0.361494	0.132679	-0.2104	0.272658	-0.124244	-0.167197	0.0404572	-1.32337	0.0621398	-0.726325	0.234249	0.236132	1.56269	-0.057259	-0.336318	-0.970622	-0.750854	0.0634015	0.381989	0.0727533	-0.157758	-0.466517	-0.868467	-0.941159	-0.753556	0.441552	0.315691	0.378576	0.239558	-0.300817	0.190344	0.168037	0.822482	-0.284606	1.05744	0.0523464	-0.138538	-1.08217	-0.412885	-1.38991	-0.0831749	-0.226696	-0.145713	0.461108	0.255916	-0.252959	0.00986116	-0.265841	-0.0875067	0.39677	0.0977227	-0.15385	-0.813912	0.257888	0.545947	-0.00766962	0.0683544	-0.539406	0.150181	0.0808155	0.463896	-0.446706	-1.70286	-0.24993	-0.133428	-0.223226	-0.562669	-1.21728	-0.683965	-0.561527	-0.067234	-0.65856	0.158474	-1.03626	-0.505048	1.16093	-0.591438	-0.0660244	-0.177717	0.025506	-0.585185	-1.01151	0.765207	-0.898036	0.409144	-0.0139502	-0.0232906	-0.182867	-0.1998	-0.293701	0.927281	-0.0701133	0.260642	0.648371	-0.141636	0.241906	-0.427497	0.0190262	0.270006	-0.454672	-0.47259	-0.456993	0.49719	-0.918484	-0.2548	0.0991186	0.123928	0.851552	0.0394092	-0.0363923	-0.414279	-0.431735	-1.4608	-0.579969	0.0398855	0.625551	-1.18032	0.789348	-0.224814	-0.245994	-0.183795	-0.381674	-0.555882	-0.191012	-0.729847	-0.90187	0.214997	-0.106746	0.383077	0.0204868	-0.216495	0.278019	-0.710334	0.0919808	-0.299725	-0.205823	-0.634387	-0.80422	-0.148709	-0.169668	0.175196	-0.142106	-0.131452	-0.10547	0.653751	-0.304285	-0.26966	-0.955478	-0.320327	-0.387603	0.271505	-0.747728	-0.749235	-0.258302	0.08125	-0.303482	-0.152772	-0.231063	-0.247711	0.148763	-0.113885	-0.162985	-0.824999	-0.239422	-0.548927	-0.702289	-0.372899	-1.07059	0.447628	0.735911	-0.368035	-0.589381	-0.977349	-0.65893	0.312565	0.265632	-0.186495	-0.421674	-0.619482	-0.33637	-0.445619	-0.3136	-0.107933	-0.101483	0.302485	-0.3332	-0.139415	-0.222966	-0.28938	-0.413756	-0.144456	-0.0210684	-0.33559	-0.595598	-0.152528	-0.72788	-0.306062	-0.0199274	-0.310811	-0.919965	-0.183575	-0.374904	-0.495771	-0.377267	-0.248006	-0.600228	-0.254636	-0.276672	-0.669611	0.0412943	-0.732634	-0.538296	0.350259	-0.390561	-0.408953	-0.246302	-0.814483	-0.0868458	-0.87886	-1.24554	-0.384782	-0.611195	-0.516334	1.09156	-0.216878	-0.561922	-0.442449	-0.325638	-0.512322	0.367957	0.00785749	0.0181669	-0.843442	-0.245788	-1.27502	-0.489159	-0.165069	-0.307585	0.559327	0.264259	0.204815	-0.635115	-0.621316	-0.39114	0.472237	-0.295185	-0.652855	-1.03551	-0.285815	-0.509831	0.175663	-0.867704	-1.66827	-0.918025	-1.02466	-1.21562	-0.174366	0.510695	-0.330524	0.20587	-0.718609	-0.308458	0.309029	-0.691087	-1.06116	-1.10677	-0.0104701	-0.913776	0.123597	0.700143	-0.952843	-0.67882	-1.20458	-0.883424	-0.400015	-1.03089	-0.236144	-0.582701	-0.424614	-0.873184	0.232778	-0.308697	-1.3039	0.51034	-0.555756	-0.607035	-0.536441	0.840022	0.227659	0.147536	-0.160526	-0.0499964	-0.47534	-0.965156	-0.625285	-0.738907	0.07739	-0.44356	-0.486606	-0.784157	0.0242464	0.0361174	-0.765518	0.345887	-0.308669	-0.458413	-0.842444	-1.84893	-0.610807	-0.661835	-0.34914	-0.495197	0.420447	0.149049	-0.386515	-1.05165	1.07959	-1.32378	-0.517076	0.188517	0.284404	-0.4002	0.0036384	0.222588	-0.0296875	-1.46393	-1.60085	-0.0697475	0.0664054	0.0230424	-1.24549	0.091375	-0.0438893	0.298231	0.171482	-0.393634	0.133439	0.392323	-0.270835	0.485941	-0.56786	-1.54219	-0.428577	0.671731	-0.529335	-0.425325	0.0679805	-0.931016	-0.0166762	0.0164034	-0.141283	-0.764849	-0.812001	-0.365874	-0.239579	-0.199334	-0.104609	-0.13415	-0.547269	-0.23278	-0.217007	-0.757016	-0.0631592	-0.518041	-0.35641	0.550696	-1.32352	-1.23873	1.26399	-0.611412	-0.786751	-0.398889	-0.0744262	-0.235401	0.740866	-0.109795	0.805802	-0.340646	-1.06115	-0.0361379	-0.0557321	0.334677	-0.838668	0.0468758	-0.24428	-0.181571	0.275323	-0.287611	-0.264592	-0.387534	0.967555	-0.285396	0.244203	-0.283855	-0.655596	-1.02322	0.288055	-0.14317	-0.0358374	-0.836336	0.12664	-0.469627	-0.319014	-0.204055	-0.302802	-0.608678	-0.199887	-0.726417	-0.542264	-0.63827	-0.577893	0.0128592	1.70679	0.127505	-0.651529	-0.0168482	0.686173	-1.08648	-0.174548	0.412652	-0.132066	0.401757	0.649672	0.515423	0.551319	0.0168676	-0.494861	-0.246415	-0.176795	0.093381	0.0841947	-0.0578441	-0.273038	-0.356813	-0.111117	0.0638144	0.170876	0.273727	0.220126	0.759313	0.0449317	-0.779556	0.154723	0.244887	-0.313039	-0.04345	-0.0318714	0.000873566	0.167972	-0.0232577	-0.18614	0.191187	-0.0235958	-0.0593822	-0.176432	0.561535	0.0646315	0.110289	-0.0448692	-0.00861623	-0.315284	-0.633674	0.699498	-0.224241	-0.16139	0.521527	-0.509061	-0.465877	0.161778	-0.572533	-0.284177	0.213204	-0.0629809	0.335399	-0.0638896	-0.241668	0.558486	0.116695	-0.247938	0.156839	0.036122	0.161988	0.0189841	0.601321	-0.322623	0.0631985	0.185607	-0.109356	0.105124	-0.0539521	-0.0666246	0.0325169	0.136725	-0.418884	0.0970113	-0.621592	0.479749	-0.217701	-0.161925	0.574394	0.263847	0.13875	-0.157493	0.278214	0.000677459	0.115683	0.364841	-0.805829	-0.0223726	-0.329111	0.3248	0.310104	0.408488	0.10596	-0.0661132	-0.559481	0.707828	-1.26422	-0.452071	0.184187	-0.470417	-0.1027	0.319385	0.470899	0.399306	1.28751	-0.355928	0.211909	-0.392322	-0.0424959	0.374922	-0.191772	0.420853	-0.561587	0.246321	-0.0387227	0.416022	0.153103	0.46912	0.0587727	0.0848414	-0.942206	0.105706	0.333021	-0.428776	-0.0865323	-0.365726	0.600667	0.0336024	0.0858233	-0.188633	0.13169	-0.371535	-0.0761405	-0.334975	0.168535	-0.0255217	0.176991	0.107184	-0.0422293	-0.466925	-0.76332	0.483625	-0.116464	0.0075771	0.495788	-0.165014	-0.60132	-0.6202	-0.828153	-0.374575	-0.0457902	0.34432	-0.265555	-0.83042	-0.356822	-0.045233	0.0740862	0.0233068	0.0338863	0.211447	-0.272958	-0.0110225	0.382043	-0.445208	0.0566225	0.0100645	0.609141	0.423409	0.245732	0.717881	-0.00771177	0.142765	0.0134509	-0.101541	-0.0840749	0.211934	-0.322851	-0.193423	0.340338	0.000904698	0.226371	0.282318	0.022317	-0.0177559	0.368504	0.0358994	-1.10268	0.21906	-0.548577	0.449523	0.300702	-0.422748	0.201471	0.0760057	-0.303549	0.552218	-0.591578	0.36594	-0.0171988	0.0742936	-0.0394274	-0.193691	0.40589	0.172823	-0.0201293	-0.138171	0.0870442	-0.139643	-0.00545743	0.198714	0.10429	-0.0139224	-0.17491	0.0920981	-0.0621109	-0.021784	0.17873	0.141298	-0.129825	-0.213677	-0.0426082	0.00689412	0.427909	-0.0528694	-0.0514642	0.364284	-0.158409	0.243536	0.136888	0.135442	0.0594851	0.24555	-0.162947	-0.253553	-0.374355	0.0775374	0.215099	-0.0875443	0.160749	0.376282	0.0664559	0.160318	0.0068481	0.338002	0.68639	-0.0734506	-0.154913	0.0463993	0.264344	-0.148444	0.233632	0.157767	-0.229004	-0.277003	0.186312	0.0867441	-0.131998	-0.154549	-0.175898	0.205874	-0.0575318	-0.224234	0.110897	0.0978744	0.126709	0.159251	0.0892309	0.229798	0.176888	0.840036	-0.112932	-0.149247	0.279612	0.0640823	-0.0456838	0.066667	-0.012923	0.274477	0.118324	0.176258	0.194382	0.0162008	0.120244	-0.0107368	0.0779469	0.0120624	0.259676	-0.150735	0.0265593	-0.0846973	0.115719	-0.126749	0.381357	-0.13248	0.0609401	0.0597156	0.0564379	0.0872707	0.0584765	0.0236396	0.0321604	0.0234077	0.0626789	0.0655416	0.0657826	0.076043	0.0499619	0.051149	0.0175542	0.0419874	0.0470992	0.0984375	0.088702	0.00221564	0.00732749	0.00925932	0.0389386	0.0317179	0.0932279	0.0832331	0.0573504	0.0494186	0.0394696	0.0919736	0.0521958	0.0112613	0.0860958	0.041792	0.0752831	0.0995727	0.0228828	0.00301828	0.0465346	0.0118381	0.0355449	0.0340251	0.0943968	0.00204169	0.0942259	0.0781213	0.0776666	0.0776269	0.0750725	0.0614124	0.00440382	0.00528275	0.0554033	0.0697684	0.0135319	0.0286416	0.0731437	0.0330088	0.0347697	0.0509781	0.0911466	0.0944639	0.0924955	0.0861324	0.0570208	0.0939726	0.0691763	0.030665	0.0990905	0.0425123	0.0940306	0.0604694	0.0491043	0.0165624	0.0724601	0.00489517	0.0323466	0.0502762	0.0219581	0.00154424	0.0157414	0.053679	0.0300851	0.0848689	0.0545946	0.0349345	0.000122074	0.011652	0.0285775	0.054857	7.93481e-05	0.0765679	0.00763878	0.091757	0.0806055	0.0208747	0.0383618	0.044789	0.0775018	0.0874081	0.0915128	0.0538682	0.0644215	0.0249855	0.0612903	0.0643483	0.0713828	0.0953703	0.0570269	0.0145116	0.0347331	0.0858425	0.0778283	0.0740898	0.0941862	0.0806421	0.0108798	0.0118168	0.00253914	0.0942564	0.0440321	0.0202826	0.0637501	0.0197699	0.0332133	0.0760674	0.0648976	0.0954009	0.0153966	0.0634114	0.0177648	0.0422834	0.00769066	0.0394513	0.0756035	0.0767052	0.083166	0.0692007	0.0406995	0.0498489	0.0640919	0.00835292	0.0284127	0.0182318	0.0231635	0.0621235	0.00326853	0.0979034	0.033372	0.0981017	0.0527421	0.00556963	0.0571245	0.0414228	0.0143803	0.039787	0.0152532	0.0302286	0.0218574	0.00524003	0.0265267	0.0596301	0.0855953	0.0334056	0.0582995	0.0922605	0.0735954	0.0025605	0.0789148	0.063567	0.00807215	0.010358	0.0524888	0.0599536	0.043556	0.00206	0.0667196	0.097879	0.0420331	0.00756859	0.0342967	0.0820856	0.0108097	0.0903592	0.0586047	0.0710379	0.0186926	0.061446	0.00427564	0.0277047	0.0560991	0.0615528	0.0632832	0.0838588	0.0547472	0.06451	0.0571337	0.0959075	0.0325419	0.00511795	0.0658437	0.0205206	0.0792901	0.0845363	0.0242958	0.0880825	0.0488357	0.0563005	0.0765862	0.00208747	0.0732933	0.0461959	0.0290139	0.0427046	0.0649556	0.00898465	0.092346	0.00250557	0.02154	0.0752068	0.0539201	0.0325846	0.00036317	0.0911191	0.0703177	0.027134	0.077102	0.00495315	0.0211035	0.0246345	0.0547166	0.00256661	0.0143895	0.0537584	0.038258	0.0456465	0.0847163	0.0021363	0.0410535	0.0155431	0.0739799	0.0361003	0.0379894	0.015952	0.0360057	0.0495132	0.0315073	0.0374584	0.0553392	0.0698416	0.0458937	0.037141	0.0209418	0.0995788	0.0155156	0.0363445	0.0454054	0.021128	0.0826594	0.0897244	0.0702658	0.0433149	0.070513	0.028724	0.0481124	0.0176	0.0470199	0.0325846	0.0420667	0.0021485	0.0451369	0.0300119	0.0332377	0.0018952	0.0551927	0.08464	0.0768761	0.0626911	0.0549272	0.0674032	0.0977142	0.047673	0.0928495	0.0689627	0.0652364	0.0740196	0.0905454	0.0552629	0.0394513	0.0381268	0.0795557	0.0194281	0.0277779	0.00744041	0.0384533	0.033018	0.0436964	0.00698874	0.0457289	0.0498642	0.00780053	0.0787622	0.0141362	0.0655477	0.0818323	0.0420759	0.0220923	0.0856777	0.0763573	0.0330424	0.00779443	0.00606708	0.0227088	0.051265	0.0416334	0.0579913	0.0498093	0.0918729	0.0425611	0.0215339	0.0564867	0.0910459	0.0540422	0.0603076	0.0199377	0.0631306	0.0451796	0.0805231	0.0309519	0.057503	0.0526749	0.0676321	0.0964995	0.0132542	0.0292306	0.00362255	0.000344859	0.0398663	0.014011	0.0181097	0.0623035	0.00200201	0.0908261	0.0763329	0.0867061	0.0364971	0.0495956	0.0571856	0.0408032	0.0797266	0.0168065	0.0244362	0.0536637	0.0334208	0.0705008	0.0442183	0.0761681	0.0471236	0.00546281	0.0519211	0.0928129	0.0453352	0.064272	0.0216468	0.0258553	0.0775231	0.0997223	0.0413312	0.0225013	0.0191229	0.0843867	0.046617	0.0657002	0.00162358	0.032841	0.0166906	0.0991943	0.099884	0.052208	0.0851222	0.00748009	0.0547899	0.0866482	0.0688803	0.041258	0.0594256	0.0714347	0.0686483	0.0290078	0.0867946	0.0622059	0.0435255	0.0653371	0.0873043	0.0550493	0.0133061	0.0166967	0.0340922	0.0630329	0.0913938	0.035139	0.311293	0.0557781	0.293928	0.473145	-0.0894497	-0.0439554	0.354354	-0.372063	0.170196	0.942322	0.223066	0.0396353	0.19331	-0.300482	0.42162	0.183405	0.444523	-0.0926002	0.488222	0.103995	0.229072	0.0911697	0.171379	-0.390539	0.126382	0.157375	0.476675	-0.20697	-0.301068	0.115984	0.174095	0.910467	0.279296	0.155163	0.15912	0.203824	0.594497	0.578964	0.584343	0.531925	0.0982489	-0.0493096	0.18438	-0.0908546	0.218846	0.0197002	0.072548	0.575995	0.370332	0.468154	0.342815	0.191834	-0.43862	0.109873	0.395179	0.406922	0.415368	0.247513	-0.151323	0.495214	-0.195077	0.140091	0.0571862	0.398935	-0.0421829	-0.206005	0.811264	0.00570497	0.516154	0.344145	0.305344	0.253998	0.164959	0.0311054	-0.0499647	0.108304	0.331473	0.310519	0.324341	0.534834	-0.0504115	0.196766	0.0921361	0.0738148	-0.142463	0.046171	0.487206	-0.28488	0.1024	0.21803	0.35155	0.344716	0.235025	0.0913254	0.247726	0.197736	-0.816937	0.148274	0.0647406	0.50875	0.377566	-1.05756	0.207901	0.51708	-0.0480586	-0.326506	-0.096291	-0.661214	0.0169622	0.172153	-0.608307	-0.0652264	0.0943962	-0.267726	-0.0139963	0.00490738	0.595864	-0.12127	0.459617	-0.0893982	0.297717	-0.368251	-0.184149	-0.612313	-0.219339	-0.415766	-0.156569	0.26585	-0.71907	-0.053911	-0.0645035	0.272767	-0.046559	0.217574	-0.265247	-0.0635746	-0.20603	0.231117	0.309256	0.285378	0.111071	-0.344392	0.0576031	-0.271537	0.344887	-0.427038	-0.652615	-0.0223902	0.0998848	0.64942	-0.681408	-0.600578	-0.545333	-0.896187	-0.158761	-0.10182	0.50336	-0.122436	-0.337806	0.530805	0.0819578	0.0221481	-0.396011	0.34458	-0.150911	-0.439283	0.455908	-0.308864	-0.0443159	0.253566	0.212326	0.216739	-0.054213	-0.168614	0.538106	-0.0636121	0.532369	0.558979	-0.0472214	-0.057839	-0.0769895	-0.133313	0.346134	-0.272062	-0.0472601	-0.142696	0.312898	-0.496743	-0.0642096	-0.101394	0.0418306	0.182805	0.239537	-0.457386	0.0241142	-0.0563367	-0.561557	-0.0615224	-0.0973301	0.164782	-0.162467	-0.0915498	0.134671	0.525905	-0.1453	0.188893	0.423195	-0.272902	0.288721	0.327801	0.217244	-0.302352	0.286655	0.0312478	0.196992	0.12356	-0.0644915	-0.0534117	-0.219969	0.24921	0.211409	-0.0649435	0.130727	0.120065	0.17457	0.298119	0.286269	-0.327922	-0.203042	0.153644	0.00725474	0.679981	0.0876616	-0.106702	-0.0330853	0.120796	0.396895	0.365234	0.43042	0.61885	0.152236	-0.0506769	0.247417	-0.00677145	0.153074	0.0682666	0.181477	0.538409	0.165203	0.11761	0.0674438	0.326576	-0.4104	0.148626	0.27992	0.200124	0.0534978	0.454954	-0.0819174	0.263959	-0.0119003	0.121697	0.0952512	0.370902	-0.250995	-0.13591	0.666433	0.165642	0.377499	0.260869	0.0963853	0.315395	0.0905424	-0.0192761	-0.739859	0.229501	0.326092	-0.00685383	0.274418	0.233199	0.138767	0.0156572	0.0761515	0.109253	-0.00566411	0.0409018	0.20879	-0.00730132	0.208963	0.0698554	0.341008	0.0620475	0.240824	0.131728	0.242427	0.0985813	-0.680371	0.19797	0.128907	0.0636483	0.433975	-0.393293	0.175977	0.644866	-0.240206	0.326708	0.352488	0.0541411	0.479841	0.429991	-0.135686	0.0270919	0.267247	0.181768	0.248793	-0.0564126	0.0777866	-0.1029	0.0497398	0.129542	0.0951227	0.00461845	0.23423	0.423259	0.0430211	-0.00466478	0.180926	0.169521	-0.339333	0.143185	-0.0368414	0.502628	0.0485165	0.0723768	-0.104482	0.270193	0.402628	0.171849	0.242462	0.636606	0.0752114	0.037652	0.0687088	-0.0434803	0.150491	-0.0297287	0.449154	0.268331	0.213989	0.419489	0.0925322	0.172132	-0.13709	-0.0385241	0.0667703	0.182313	0.248189	0.425788	-0.211144	0.27786	0.242811	0.19494	0.0803813	0.364996	-0.11567	-0.0176157	0.311954	0.242304	0.0982251	0.215395	0.149789	0.315983	0.284399	0.0278193	0.188986	0.0817311	0.38524	0.137073	0.215551	-0.00688446	0.27968	-0.086239	0.0832535	0.245516	0.107979	0.138364	0.180705	0.135199	0.100726	0.150451	0.355228	0.0676759	0.239265	-0.0672039	0.299648	0.176687	-0.315587	0.345086	0.0206186	0.106589	0.540191	-0.731226	0.196625	0.614138	-0.343149	0.234339	0.0832103	-0.502843	0.525679	1.46657	-0.166108	0.218357	0.0762979	0.0497507	0.526906	-0.159809	0.915069	-0.424935	0.685953	0.194435	0.348484	0.000912434	0.0153918	-0.41319	-0.0564472	-0.166151	0.167117	0.587049	-0.470017	0.0609661	-0.103885	0.85164	-0.0255823	0.388735	-0.1857	0.480228	0.310641	0.321015	0.395678	0.635468	0.15424	-0.268953	0.196882	-0.0678859	0.0965266	-0.193142	-0.100313	0.174604	0.302425	0.478199	0.0703769	-0.295479	-0.914064	-1.02723	0.120942	-0.038795	0.791491	0.0740544	-0.751259	0.586958	-0.0307905	0.404105	0.410639	0.488398	-0.0188963	-0.417131	0.629072	-0.213043	0.058209	0.264653	0.0593174	0.427453	0.288328	0.175495	1.05725	0.215783	0.558228	0.667379	0.238174	0.655121	0.163613	-0.17644	0.342515	0.493385	-0.00799948	0.0839734	0.774599	-0.0713879	0.0874567	0.558446	0.368077	-0.145697	0.627414	-0.0987662	0.555256	0.114405	-1.35689	0.0525893	0.274438	0.539974	0.669495	-0.865737	0.116075	0.0423975	-0.00234072	-0.511784	-0.289182	-0.463882	0.0465483	0.821561	-0.49701	0.380368	-0.0534747	-0.153181	0.137913	-0.0229318	1.0565	-0.0845689	0.829947	-0.213915	0.445347	0.0233828	-0.239478	-0.826838	-0.307248	-0.426934	-0.0861707	0.626164	-0.419171	-0.115159	0.0527764	0.283944	0.0688932	0.413768	-0.103856	-0.00764938	-0.0979811	0.0456902	0.0985767	-0.020612	0.0900059	-0.138956	-0.0262448	-0.127293	0.189152	-0.215724	-0.458582	-0.0821681	0.234067	0.516548	-0.357568	-0.486069	-0.539392	-0.826176	-0.17465	-0.111902	0.639546	-0.464076	-0.419229	0.399478	-0.156635	0.0203598	-0.264201	0.0799899	0.172259	-0.316361	0.126338	-0.392338	-0.0725569	0.16256	0.125824	0.228638	0.00703008	0.13102	1.49072	-0.0468969	0.35581	0.758737	-0.211084	0.442545	-0.087113	-0.0422194	0.291253	-0.00672939	-0.0532118	-0.127068	0.501186	-0.320323	-0.0698565	0.346299	-0.0715082	0.209738	0.290856	-0.166297	-0.068152	-0.000906171	-0.87962	-0.0519385	-0.0648259	0.598165	-0.181284	0.42579	0.555567	0.846068	0.12143	1.17445	0.588115	0.240498	0.526202	-0.635839	0.845643	-0.310307	0.514772	0.374873	0.485333	-0.0104407	-0.696235	-0.010454	-0.291556	0.892946	-0.0942555	-0.217014	0.305741	0.948454	0.54821	0.881075	0.123837	-0.340975	0.252562	0.468384	0.0896508	0.293949	-0.0313812	0.126961	-0.133784	0.996592	0.574975	0.43239	0.400188	1.20045	0.305389	-0.0431495	0.645834	0.272436	0.4928	0.331481	0.512652	0.391191	0.455263	0.442335	0.158102	1.05535	0.290884	0.314977	0.640895	0.360715	0.327802	1.32516	0.396584	0.652135	0.577993	0.635032	1.05938	0.513348	-0.337737	0.0724371	0.897722	0.500756	0.0713453	0.402726	0.579847	-0.361384	0.216383	-0.164889	-1.60755	0.209042	0.394841	0.14785	0.720993	-0.484053	0.350155	-0.092353	0.538188	1.05422	0.672209	0.674829	0.173003	0.310326	0.447807	-0.0622497	0.90054	0.412423	0.291376	0.121794	0.968022	0.310906	0.597137	0.327377	0.657642	-0.789724	2.34098	-1.5178	0.0803701	1.25381	0.0763169	1.48641	1.5294	0.628088	1.26832	1.05424	-0.457575	-0.58687	0.227705	0.365725	0.694611	-0.296361	0.128345	-0.641062	-0.297153	0.660471	0.386055	0.671412	0.889619	1.61206	0.314556	-0.536276	0.744358	0.254236	-1.03932	0.31502	-0.00812178	0.658405	0.195134	-0.109547	-0.171585	1.0153	1.27612	0.524103	-0.0313703	1.40397	0.0920219	0.266415	0.17693	-0.103728	-0.157051	-0.262527	2.10038	0.218628	0.569504	2.5101	-0.223443	0.63315	0.568179	-0.337048	0.56458	0.897448	0.475388	1.70186	0.32896	0.0746903	0.909624	0.732841	0.246552	0.547552	0.379917	0.260123	0.719395	1.5779	-0.444942	0.40929	0.609147	0.899972	0.697635	0.0182741	0.104027	0.268169	0.43207	0.0453494	0.819488	-0.53905	0.934154	-0.267304	-0.269921	1.34066	0.624664	0.992458	0.418179	0.636603	0.527985	0.431761	0.825201	-0.410634	0.482085	-0.260585	1.2063	0.774167	0.792348	0.786033	0.167132	-0.684369	3.07712	-4.43999	2.90515	7.79066	-0.887585	12.2083	3.99931	4.45524	9.99188	4.68751	5.93162	-2.34781	-0.532985	4.75352	9.75724	-2.12077	-3.33368	-4.84649	-2.62434	5.85869	-0.340982	0.374222	4.20532	11.0356	2.80067	6.55435	2.07366	1.6261	-0.137997	4.42679	0.815038	1.69744	0.912125	0.905623	-2.58006	11.0541	7.24425	1.38624	-1.68081	11.3476	2.57797	2.40568	4.00062	1.51909	3.06654	3.74635	9.00497	0.998044	4.7586	2.96516	2.00627	7.40409	-3.3277	-2.00022	6.43538	5.81623	3.1431	11.4892	-2.14612	0.77272	4.14473	7.18349	10.7934	3.83379	0.214175	0.702905	3.81268	6.88137	-2.31186	3.69918	0.909896	0.49981	4.2252	2.24839	-5.2464	0.739564	1.86879	1.5632	6.37401	-0.904617	5.10038	-2.72174	1.49326	15.1871	5.14156	7.49708	4.12881	6.16985	3.84061	4.94199	5.76181	-2.84772	6.44315	1.37981	9.49743	3.37752	-0.378156	2.61725	5.84631	-6.6932	6.19331	-7.24947	7.55217	6.52018	0.750965	10.5073	5.47727	4.03635	10.828	10.979	9.05598	-2.83982	-1.41351	2.28038	15.2522	-2.31446	-0.00889597	-5.67276	0.526126	6.74741	2.88124	1.47002	4.48942	5.66317	3.26517	10.4681	2.67156	0.484965	-0.860369	6.0591	3.53848	1.73617	1.42527	3.66744	-2.71996	13.4693	9.15842	3.39498	0.0448386	13.8277	3.40665	2.21526	6.58555	1.94954	6.78826	5.61205	8.68995	3.22649	6.54223	3.56062	2.20565	12.3623	-9.3545	-3.86583	8.58463	6.86491	7.75566	13.3567	-3.71242	3.36635	2.2076	8.44657	14.014	5.62039	2.10173	-0.57529	8.23517	7.44471	-2.80709	5.0502	3.11414	0.72935	6.10655	3.47363	-5.61238	0.750134	3.79867	6.4714	10.0789	3.30642	3.94073	-1.64221	4.90892	19.3186	6.52356	10.4788	7.90926	7.3912	5.06197	9.15273	9.40047	2.70637	7.97001	3.44992	12.9178	5.44823	-7.52196	4.24576	8.86217	-6.62648	8.56307	-2.01522	4.10716	2.90789	1.77198	6.40054	4.49877	4.42605	4.75989	16.8861	6.57683	1.80676	-3.06717	-1.08169	10.342	-0.922476	4.97076	-6.13543	3.52097	5.09832	5.04084	3.92606	5.0431	-1.00771	5.35043	3.91872	5.88757	0.578476	-0.642963	2.56984	3.15301	6.03189	3.39037	4.03029	1.1115	7.9357	9.1246	3.94251	0.461611	2.79979	2.00669	2.19961	4.80984	1.31835	1.74273	-0.512084	5.84665	1.42363	5.40849	9.20432	9.66154	7.64694	-3.49196	0.758873	4.55602	6.48296	8.76991	4.23538	-3.29819	1.57779	0.734301	4.11694	11.6347	2.88686	4.03209	-1.78605	5.83685	5.79684	-1.16087	4.03051	5.42756	3.9866	3.82779	4.78257	-0.604829	1.08167	1.10985	5.08321	5.63749	4.41104	0.363552	0.502313	2.63663	11.4075	3.06258	6.41966	5.18563	2.50152	2.66031	6.16372	4.66639	6.43407	6.02358	1.29139	8.37746	3.89852	-4.78178	3.95124	6.70708	-1.38022	0.256297	7.4556	1.9209	-0.84363	1.45251	4.26035	2.41537	2.87623	1.17829	8.36105	5.81625	2.60677	0.101158	0.0474607	3.32363	-0.758012	1.84923	-0.46122	2.07311	3.13388	1.57148	1.40177	1.18183	1.22638	3.34569	4.85316	3.21939	1.40763	4.81657	1.28009	1.50565	-0.658114	0.677975	1.42483	2.06017	3.75864	3.71914	1.55326	1.31651	-0.447897	1.00682	0.270727	2.16515	2.24094	0.267593	0.514175	1.28942	-1.02465	1.80039	1.6011	11.9222	5.28779	0.824725	3.78586	2.32127	1.33244	2.9698	1.24731	0.137695	0.905144	0.208041	1.06652	6.22263	0.621087	2.73578	1.71803	2.94975	0.738573	-0.287621	0.791617	3.02645	1.29385	0.779355	2.85366	-1.25942	1.27811	-0.767997	2.03207	2.62831	3.49975	-0.576548	1.53783	1.94559	5.421	1.7903	2.64922	1.1984	1.97436	0.983606	2.27618	2.85418	3.79054	2.58707	2.57075	3.9147	1.07297	-0.458146	-0.350569	4.31061	1.89822	14.3066	-1.44546	5.16729	2.8037	7.29794	-3.81181	2.70195	-1.58644	-2.04691	9.65075	0.510859	6.38484	3.32554	-6.4548	2.20447	1.34938	14.0803	1.50295	14.1982	0.0251399	5.84474	6.41245	0.492751	-9.14208	0.647691	-3.20788	7.3367	1.61539	-2.95366	-0.601205	7.2477	5.54353	3.59025	7.41722	1.77776	0.55098	8.22498	6.36343	6.92178	5.22248	1.33432	-0.804748	0.808713	-2.01055	3.95363	0.216379	-2.02602	3.85967	6.53835	14.4373	7.55896	-1.75645	2.76509	-0.901184	4.71156	5.96175	12.8152	0.878814	4.41111	7.60229	-0.22368	-0.540432	-1.24404	4.09824	3.20978	1.00958	7.38716	-1.43054	4.79885	4.11583	10.3767	1.32768	1.54606	0.244879	9.08647	-1.4974	5.27379	9.70104	2.46167	5.3254	-2.64302	3.92382	4.21717	-0.939763	-0.67915	0.693347	8.40027	-5.26218	0.528967	3.56588	3.58635	16.5928	1.54956	2.33528	0.939172	3.6695	1.8034	3.51237	1.35313	11.0658	4.26895	-0.161899	5.98558	4.24431	4.61035	8.99599	5.26268	-1.99321	4.17824	4.01861	5.67848	-0.489439	3.95253	1.98109	5.08987	-0.247578	5.00733	-1.01685	5.7503	9.56213	4.48974	0.581248	3.18561	-0.415355	5.26849	3.88444	4.53013	-2.04053	1.29065	3.0608	5.06549	8.25868	0.917604	5.58746	0.989058	9.32612	3.93609	8.30352	6.97274	12.5232	3.61922	-1.10749	9.04099	2.01402	4.46774	-0.623441	1.75431	3.47186	3.82248	11.3036	1.28553	4.18953	3.16426	-2.64788	8.49597	2.31987	8.45844	9.76256	2.88463	9.76952	3.07845	7.3971	13.1593	5.94938	0.751309	-3.07034	12.6115	4.33172	3.53739	5.18135	8.6975	0.902723	2.6577	-0.326446	-8.76868	1.388	6.02232	7.54796	7.48335	2.00762	1.96884	1.41165	6.99549	9.20235	3.83465	5.27086	7.48568	-0.280984	3.55607	4.19492	7.4809	16.1741	8.35418	2.50792	10.307	2.73246	3.18182	2.8144	9.6653	2.33719	2.99469	-5.29687	-3.78966	-4.27775	1.55599	11.3562	2.27419	10.0065	9.91006	-13.8732	-7.53166	-2.39031	0.298335	10.4497	-3.69188	-3.52237	-8.22981	5.3933	-8.57548	1.59177	-1.01863	1.76462	0.798107	19.45	-3.07315	-0.631046	-4.74042	6.61065	5.00403	2.25059	-0.529036	-14.2746	-4.16699	-2.13987	-0.456019	3.70423	-8.23732	-7.33884	-7.26567	2.66885	0.751907	3.1796	-2.03623	3.06485	-1.27756	0.449661	10.2722	-6.34807	-4.22309	-1.14546	-4.85174	-0.743474	11.305	-4.20703	-2.96603	-3.67037	-6.28388	7.7083	6.71217	-4.95372	9.7521	2.45917	2.32333	-3.35449	5.85379	9.49357	-8.8918	6.39624	-7.63873	-2.72561	-1.18876	-0.625046	1.17246	1.27774	0.0592531	-0.276538	-1.82357	-3.65049	0.00703472	-7.93453	8.44169	-2.55644	1.01658	9.48858	8.36696	4.506	-6.50748	10.5723	1.85239	-0.972502	-0.980632	-16.1157	2.47493	0.415627	3.84381	1.01306	17.9996	1.14859	0.237	-3.58434	-2.98454	-2.00257	-12.0291	4.00622	-6.28483	9.69956	9.67211	9.11479	11.6629	-19.893	-10.7381	-9.34914	4.75772	10.5089	-8.31888	-3.9741	-20.1687	6.77	-18.4441	-3.64654	-6.71439	-0.0818808	-0.689373	33.7107	-2.69756	-3.28686	-4.00422	3.29524	1.77547	0.961208	-7.69844	-13.1684	-6.02383	-10.9882	-3.48613	-2.39255	-5.41136	-8.65948	-6.62669	9.25906	-1.81062	1.53553	-8.08217	-0.216608	-8.74759	-1.61444	12.623	-4.93915	-9.05162	-16.7197	-2.54289	-6.52202	10.2778	-6.13831	-5.89515	-4.38758	-15.819	11.5995	8.91333	-9.9232	10.9624	-0.949291	-8.5345	-1.2649	-0.982445	12.9063	-10.2444	7.84205	-7.90858	-5.32957	-7.39404	-3.16141	-1.08201	-2.68639	-9.57487	1.22253	-2.01686	-16.8915	-0.410484	-17.0651	9.92167	-5.34857	-8.63081	2.3579	5.85416	-0.62986	-14.5005	12.7524	0.900591	-6.27279	-1.04258	-34.233	-2.53592	-2.57124	0.117835	-0.741661	18.8722	-2.70485	-7.89131	-10.1768	0.604663	1.57515	2.45908	3.00476	2.16129	9.47073	4.49273	4.15138	5.16213	1.71972	6.08502	-0.611239	-0.743562	4.18398	5.02173	-1.13643	-2.27035	-2.08127	-1.49648	6.39915	1.8822	1.93687	2.95483	6.3717	4.45293	4.29722	0.778332	-1.43681	2.63248	2.98067	0.848308	3.70426	0.125908	2.16039	-0.495729	7.89164	4.21071	2.23913	-0.181748	7.27899	2.25466	1.98555	6.04838	2.37421	1.19937	0.366278	6.07284	0.721601	2.31619	4.50477	3.7494	6.77305	0.425115	0.423737	4.61652	2.47583	4.3644	8.40573	0.766473	0.898017	3.05839	6.01658	11.8755	2.16577	1.64889	1.29438	3.04631	5.57909	-2.14308	1.48122	3.48096	-0.777585	2.11042	2.04197	-8.58381	1.1579	1.1728	1.56261	4.12551	-1.14451	3.08063	-0.666585	3.87322	10.6198	6.20082	5.62337	2.24597	4.38843	2.6754	1.63808	4.34214	1.6431	5.31807	0.863266	9.1372	2.66455	6.08104	3.08375	7.66475	-5.37426	-3.74467	2.01956	1.43727	2.66073	0.285979	9.04534	1.60367	2.70071	4.7854	-1.7278	5.36895	-2.52791	-0.331533	4.53547	3.56487	-1.55462	-4.07325	-1.5008	-2.49299	5.0764	-0.399809	-1.79034	1.14877	7.10224	1.9565	5.31183	-2.29593	-1.17937	2.92635	2.71627	-0.968963	-0.355804	-1.74468	0.423081	-2.10516	6.93035	-0.377283	0.332885	-1.31207	5.96879	1.74797	0.611648	4.37772	2.27246	1.52602	0.579346	2.94364	-0.868068	0.525252	-1.32674	0.64925	4.82984	-0.105686	-1.18979	2.95468	-0.236575	0.310434	7.09425	-0.586862	0.846891	3.07508	4.76829	9.97953	1.4845	-0.58603	0.325041	1.58278	2.89328	-2.7025	0.503309	0.0578991	-1.87479	1.02544	1.00232	-8.48732	1.06722	0.931489	0.739384	2.64622	-2.971	3.00847	-2.06021	2.80719	9.32688	5.04046	4.71928	1.0319	3.4813	2.04508	0.549702	3.32838	-1.77791	3.71823	0.0426305	7.60277	0.850719	3.39647	0.733028	5.68399	-5.98834	1.37844	-5.02179	-8.14468	0.946689	-1.8285	-2.00046	0.284249	2.72782	0.879201	-14.5486	-11.7797	-2.95237	2.06543	1.93532	-10.0267	-1.65356	-5.47275	4.90771	-4.02496	-6.14696	-3.19344	-1.6011	-3.35127	11.9309	-5.96346	-7.63035	-5.05884	4.32976	-2.35152	-2.72837	-4.52945	-12.4317	-3.59194	-4.98325	-2.76588	-6.97567	-10.5455	-6.10082	-4.81951	-0.191698	-2.47781	-1.01643	-7.77738	-2.87229	-4.16822	-4.56284	-0.820606	-5.76233	-6.39661	-8.90459	-8.52052	-10.7378	8.97749	-7.07885	-7.69411	-5.09521	-8.32705	-0.78893	5.47746	-4.69864	6.11589	-4.53379	-11.9863	-1.71928	-1.37933	4.72487	-9.78409	-0.543827	-4.83914	-4.04824	-5.22974	-1.4286	-2.81961	-3.0073	4.91927	-1.26136	-0.00525804	-6.69902	-6.11777	-11.5498	2.4261	-3.38437	-5.00042	-7.96113	-0.267166	-4.33356	-7.84797	0.542793	-2.20151	-5.96167	-4.68932	-18.9808	-5.44318	-5.61194	-6.79804	-2.06504	12.8599	-3.31313	-8.39721	-2.58071	0.544068	-7.20713	-11.8046	-0.516994	-3.05411	-5.80773	0.156315	1.8421	-1.84846	-21.5699	-17.9571	-2.72951	2.95785	2.61274	-15.5584	-1.78312	-6.84554	8.43511	-4.5288	-8.93091	-3.20871	-3.20811	-5.05169	14.321	-7.82763	-12.3875	-7.15876	6.14912	-2.47731	-4.67737	-7.12875	-16.0147	-5.05194	-6.6265	-3.059	-11.5624	-17.9989	-7.92184	-5.57485	-0.789273	-3.78534	-1.84958	-10.1135	-3.86267	-6.96472	-8.01813	-2.72667	-7.92166	-10.2193	-12.6669	-12.4894	-16.1127	12.4114	-9.73948	-12.3545	-8.92696	-12.1689	-3.8488	8.14107	-5.38152	7.08225	-6.60024	-19.1217	-3.00137	-1.84541	5.47991	-12.8301	-1.44203	-6.12168	-6.45894	-6.84266	-1.27742	-4.26962	-5.47046	8.3261	-1.74837	0.391195	-9.58129	-8.93209	-15.2831	2.07404	-3.9654	-6.63417	-13.936	-1.24772	-7.9336	-11.6034	-0.184601	-3.81192	-8.96469	-6.34931	-25.5358	-8.34523	-8.4635	-11.7468	-3.57645	17.5636	-5.28316	-11.313	-3.35786	-4.42948	-3.05098	-4.65086	-0.418889	-1.88652	-1.01815	-0.329654	-0.272291	-0.784305	-16.4223	-7.27909	-3.2177	1.55969	2.84123	-7.28831	-1.55722	-6.5563	4.83712	-3.5709	-2.30762	-2.34171	-5.28745	-3.1813	8.84116	-3.29075	-3.62607	-6.46888	1.23796	0.609657	-1.17812	-4.91713	-8.75311	-4.10503	-2.94958	-3.28608	-3.19569	-13.0699	-3.6349	-2.81619	1.56155	-1.09497	-1.96381	-2.38756	-0.704118	-1.90374	-4.17161	-2.8467	-4.80366	-5.84777	-9.39273	-8.38479	-5.39193	4.96258	-6.01236	-5.89743	-6.31013	-6.69238	0.700934	4.10563	-1.10637	4.32163	-1.57063	-6.7075	-0.998668	-2.32694	2.02854	-4.33332	-1.14555	-4.75839	-3.32627	-3.08649	-3.25251	-2.72972	-4.13331	-1.88079	-0.723983	1.00888	-4.37315	-3.32287	-10.6198	1.38439	-3.04752	-1.02191	-3.95937	1.733	-2.5522	-6.2381	0.323029	-1.30498	-5.9288	-0.819167	-12.9771	-3.78844	-5.32613	-2.98984	-2.26725	10.0366	-3.63492	-2.76237	-6.81218	-0.604519	-1.20318	-1.30535	-0.379215	-0.456903	-0.576941	-0.289558	0.468938	0.188461	-3.83706	-2.15589	-0.673581	0.327199	0.735005	-1.75985	-0.383204	-1.49427	1.10131	-1.17883	-0.934613	-0.699213	-0.940998	-0.690933	2.20713	-0.974903	-1.23531	-1.6544	0.690496	0.0337825	-0.281597	-1.19082	-2.51709	-1.13313	-0.756665	-0.853984	-0.982262	-3.12978	-1.28261	-1.04184	0.045943	-0.351355	-0.131688	-0.995427	-0.113591	-0.501818	-0.793007	-0.402677	-1.3956	-1.52673	-2.29876	-2.11897	-1.70336	1.09296	-1.50436	-1.5698	-1.44605	-1.62166	0.0473639	0.84844	-0.52619	1.09912	-0.640014	-1.75503	-0.446039	-0.256537	0.779565	-1.6001	-0.198278	-1.36688	-0.94514	-0.666136	-0.60467	-0.541527	-0.79706	0.615281	-0.357197	-0.00474953	-1.16011	-1.05252	-2.56578	0.531266	-0.793701	-0.353768	-0.882606	0.512876	-0.559864	-1.54567	0.41625	-0.309937	-1.33363	-0.552806	-3.63679	-0.949095	-1.24902	-0.739044	-0.551619	2.5752	-0.797731	-1.14228	-1.34843	-0.863811	-1.55284	-0.481511	0.241246	0.146781	1.60292	-0.0829198	0.738819	1.19105	-3.07031	-0.193838	-0.918082	-0.251522	1.33076	0.155525	-0.752353	-1.8174	-0.226678	-0.927864	0.793048	-0.643434	-1.18338	-0.153288	2.36969	-0.117706	-0.0998301	-1.79681	0.558596	0.279094	0.348485	-0.90967	-1.97422	-1.12032	-0.0150827	-1.52021	1.27478	-2.34152	-0.607891	-1.16825	1.10364	0.295589	-0.0553859	0.516071	0.567818	0.232367	-0.919356	-0.0827335	-1.69374	-0.760449	-1.02059	-2.47428	-0.612273	0.69308	-2.47459	-0.530729	-1.06183	-0.491797	1.35746	0.408683	0.155433	1.49545	0.738611	1.25128	-0.0756875	-0.315212	0.0602067	-0.459182	0.823464	-2.01703	-0.434872	0.080552	-1.48228	-0.0459961	-0.329044	-0.939384	-0.28777	0.0477393	-0.249868	0.0451113	-3.16274	0.89119	-1.20986	0.539066	2.27103	1.62319	0.860917	-0.502273	0.972326	0.147621	-0.566877	0.557493	-2.42786	0.380771	-1.12733	1.32003	0.042793	2.82971	-0.615259	0.790484	-2.98156	1.75977	-2.19595	0.9807	0.0468218	1.35276	-0.904203	-0.704486	0.162533	-0.979874	-1.45779	-0.736378	0.49264	-0.348888	-0.500913	0.115908	0.26974	0.881918	-0.263373	1.33276	-0.13532	0.552435	-0.172901	0.0364378	-1.54838	-0.278029	-0.978451	-0.187484	0.423978	-0.738488	-0.315302	0.82743	-0.796119	0.403119	1.05318	-0.129028	-0.230231	-0.518155	0.210037	-0.421576	-0.669315	0.249364	-0.0178289	0.184352	-0.138872	1.21475	-0.567651	-0.992285	-0.409352	0.553064	2.58447	-1.59195	-0.893748	0.931155	-0.291068	-0.334208	0.426264	1.3763	-0.565377	0.737762	0.976841	0.589258	-0.226234	-0.652822	-0.093534	0.188719	-0.539124	-0.00852981	0.248211	-0.1908	0.442045	1.43616	-0.538084	0.0358089	-0.283895	1.81544	-0.659297	0.351161	1.17384	-0.254149	-1.32517	-0.221919	-0.112969	0.942688	-0.251949	0.523276	0.324742	0.432575	-1.06581	-0.106071	-0.557439	0.026402	1.85843	-0.685263	-0.956086	-0.303841	0.139961	1.94517	0.533853	-0.0900184	-0.94765	0.0168371	0.0738304	0.0992767	0.0385083	0.00960723	0.0734153	0.0701621	0.00696432	0.0907712	0.0806879	0.0650075	0.0655934	0.00588092	0.000820948	0.0927549	0.0641896	0.0257302	0.0109622	0.00346385	0.0580645	0.0178289	0.0582293	0.0568133	0.0151402	0.08764	0.0485458	0.018067	0.0404218	0.0676473	0.0919248	0.0847865	0.00849025	0.0824183	0.0198096	0.0972625	0.0446028	0.0677358	0.0401105	0.0358989	0.0450789	0.0719993	0.0455794	0.0586474	0.0775536	0.0179479	0.0410993	0.0815485	0.051735	0.0528642	0.00557878	0.0556352	0.00130924	0.0653829	0.0540147	0.0431928	0.0676016	0.0970305	0.0153844	0.0465835	0.0255837	0.0266121	0.091995	0.0927396	0.0429609	0.0555834	0.0158757	0.0264229	0.0128239	0.0724906	0.0679006	0.0154363	0.0505844	0.0246895	0.0751915	0.0208228	0.0958129	0.0753838	0.0525071	0.0352733	0.00953093	0.0741203	0.00317698	0.0428053	0.00772118	0.0189489	0.0452284	0.00285348	0.0214942	0.0382427	0.0783532	0.0119083	0.02472	0.0704093	0.0572985	0.0458052	0.0196234	0.0695639	0.0873501	0.0358165	0.0210273	0.015305	0.00748314	0.0816492	0.0298532	0.0547288	0.07687	0.0544908	0.0365001	0.0547655	0.0302835	0.0932096	0.0447371	0.0930418	0.0181372	0.0468368	0.0567156	0.065276	0.096646	0.0664937	0.00975982	0.0374767	0.0838618	0.0998169	0.00553301	0.0209357	0.0471419	0.0910855	0.02219	0.0982147	0.037672	0.0401074	0.0501968	0.0782373	0.0376995	0.0230384	0.0423841	0.00861538	0.0360881	0.0282327	0.018891	0.0233131	0.0977996	0.0102603	0.0176244	0.0537858	0.042964	0.0152135	0.0308329	0.0817316	0.00115055	0.0804163	0.0184576	0.0615558	0.0564409	0.0616962	0.038847	0.0907193	0.0489456	0.0912961	0.0875027	0.0560076	0.0484085	0.0195959	0.0844356	0.033961	0.065508	0.04373	0.000790429	0.0734947	0.0164464	0.0762535	0.0653676	0.0388653	0.00653096	0.0569658	0.0416028	0.0411542	0.0482864	0.0610462	0.0157506	0.0363048	0.0797784	0.00656148	0.0867702	0.0179205	0.0987609	0.0145573	0.0986145	0.0829035	0.0782647	0.024781	0.00552385	0.0980499	0.0792566	0.0202063	0.0109745	0.04579	0.0259835	0.0634754	0.0708335	0.0771172	0.0596698	0.0983764	0.00143742	0.0498795	0.0361034	0.0194769	0.0831965	0.0805536	0.0828608	0.0630696	0.000253304	0.0876186	0.0816614	0.0224982	0.007004	0.0546464	0.0915983	0.0410535	0.0619037	0.0912656	0.0787744	0.0855159	0.0193518	0.0200659	0.0680258	0.0534837	0.0201758	0.0676504	0.082345	0.0176489	0.0713736	0.0878719	0.0856044	0.0600574	0.0557512	0.0954436	0.0942534	0.0995788	0.0620594	0.0380261	0.0735649	0.0656484	0.0762719	0.0849147	0.0840785	0.0214118	0.0245979	0.0604297	0.0938719	0.0894467	0.00892056	0.000204474	0.0222785	0.0830866	0.0251961	0.0584124	0.030665	0.0966063	0.00551469	0.0440962	0.0259133	0.0572527	0.0744102	0.0147588	0.0922239	0.0923795	0.0600574	0.00526444	0.0168432	0.0146764	0.050969	0.0202368	0.0254036	0.0787591	0.0388348	0.0680593	0.0924192	0.0121128	0.0381115	0.0645894	0.042613	0.0736229	0.0229926	0.0847499	0.00870083	0.0427168	0.0724021	0.0900632	0.0612415	0.0923643	0.0636006	0.0103122	0.0761589	0.0489151	0.00506912	0.0074221	0.0556261	0.0920438	0.0492538	0.0996918	0.067864	0.0978057	0.0758324	0.0744774	0.0215094	0.0780206	0.0861263	0.0675466	0.0402081	0.0190466	0.0992279	0.0370708	0.0529862	0.073104	0.0905667	0.0105411	0.066097	0.00525224	0.0634297	0.0326182	0.0319407	0.0491836	0.0941679	0.0921049	0.0806574	0.0748833	0.0415937	0.0561205	0.0300394	0.0213752	0.0613453	0.0896756	0.0394299	0.0976196	0.0156743	0.0886624	0.0231391	0.00466323	0.0194281	0.00449232	0.0890927	0.0822718	0.0127537	0.0884518	0.0182714	0.0330302	0.00121158	0.0338633	0.0506424	0.0271645	0.0538743	0.0443129	0.0930906	0.0411145	6.1037e-05	0.00589618	0.0151158	0.0330332	0.01536	0.0917295	0.0478072	0.00833766	0.0374767	0.0768059	0.0517777	0.0784021	0.00264901	0.0913297	0.0696677	0.0655507	0.0431654	0.0906491	0.0288369	0.0574755	0.0366314	0.0699179	0.009888	0.0641713	0.0476394	0.00160833	0.0466384	0.0805475	0.0524522	0.0239967	0.0731254	0.007828	0.0872799	0.0587512	0.0833705	0.0368694	0.0108585	0.0857662	0.0194037	0.0465041	0.0219062	0.0532975	0.0532762	0.0200568	0.0220374	0.419207	-0.615381	0.133575	0.290812	-0.224448	0.29663	0.167576	-0.0350152	0.350563	0.723832	-0.0421834	0.0740573	-0.0199602	0.0334521	0.363467	-0.105522	0.407628	-0.183991	0.430435	0.308936	0.282978	-0.0791853	0.113703	-0.0978517	0.0550597	-0.114028	0.0930885	0.244343	-0.291921	0.0791835	-0.139169	0.481882	0.0511221	0.257439	-0.168781	0.482951	-0.114759	0.25567	0.149844	0.36628	0.0934943	-0.0173656	0.234493	0.0136705	0.0673245	-0.231142	0.110178	0.0758304	0.18158	0.413922	-0.137732	0.021347	-0.465197	-0.515908	-0.0160777	0.0861727	0.455719	0.194119	-0.404951	0.292376	0.123345	0.289615	0.428267	0.260432	-0.00840386	-0.260788	0.370961	0.0780458	-0.105049	0.122322	0.213805	0.252632	0.186245	0.0541887	0.437549	0.0847045	0.344655	0.425611	0.226151	0.181186	0.148592	-0.0249526	0.264786	0.511093	0.165196	0.227533	0.433992	0.000958541	0.105865	0.320939	0.375596	-0.0574789	0.342914	-0.0741236	0.438793	0.180651	-0.626951	0.068151	0.3581	0.0245838	0.84749	-1.16409	0.0116233	0.271926	0.0263132	-0.692134	-0.299938	-0.421085	-0.0515255	-0.0196078	-1.00805	0.257289	0.0722905	-0.160305	-0.28065	-0.0438601	0.851431	0.0431833	0.566053	-0.450481	0.28559	-0.0719929	-0.323657	-0.470121	-0.426279	-0.925548	-0.22343	0.840655	-0.670889	-0.234387	-0.0835505	-0.240448	-0.12784	0.203128	-0.191024	-0.350289	-0.278245	-0.148917	-0.000813106	0.0392557	0.00386415	-0.290661	-0.393269	-0.252576	0.209127	-0.505517	-0.570086	-0.259404	0.0742287	0.607842	-0.897285	-0.857269	-0.0670843	-0.97579	-0.473611	-0.167503	0.383434	-0.432628	-0.133178	0.288772	0.205063	-0.213832	-0.954466	0.0579651	0.073696	-0.128203	-0.148533	-0.360447	-0.223726	0.00561281	0.0595506	0.121151	-0.0744105	-0.14257	1.73166	-0.141779	0.357523	0.479264	-0.361209	-0.204326	-0.0603927	-0.160429	0.104467	-0.423113	-0.0974861	-0.365761	0.150109	-0.338312	-0.141459	-0.0293727	-0.178828	0.282389	-0.0390251	-0.499275	-0.382369	-0.0490797	0.0439965	-0.0496675	-0.48152	0.332806	0.340861	0.197352	0.226433	0.278218	0.118262	-0.19462	0.206999	-0.134144	0.106331	1.28682	0.272821	0.14763	0.0570673	-0.199925	0.425031	0.139117	0.536201	-0.279685	0.355921	-0.0494004	0.30431	0.315511	0.193456	-0.40492	0.151182	0.114719	0.554348	-0.0342171	-0.208733	0.0641572	0.239346	0.866848	0.376412	0.11059	0.24124	0.0391768	0.804785	0.376222	0.375915	0.0556819	0.107328	0.103583	0.0707847	-0.0490214	0.0444465	0.217084	0.17786	0.429955	0.378192	0.318028	0.611361	0.101946	-0.360446	0.167676	0.411221	0.359451	0.396442	0.0133464	-0.178461	0.0992026	-0.222834	0.0233719	0.102229	0.294134	0.122055	-0.134682	0.385008	0.0238051	0.408472	0.356298	0.0211941	0.512066	0.22286	0.206737	0.221296	0.212603	0.146124	0.306946	0.29132	0.803586	-0.0441754	0.206916	0.00819886	-0.0860676	-0.226355	0.0778813	0.485711	-0.0693905	0.0396866	0.382049	0.185635	0.128585	0.164011	0.215691	0.154579	0.159475	-0.71024	0.208725	0.0449003	0.539852	0.122224	-0.506321	0.26488	0.462449	-0.226794	0.297178	0.153654	0.00621579	0.433286	0.428091	0.114864	0.0229887	0.01463	0.119017	0.387513	0.0592366	0.166798	-0.162003	0.16337	0.25224	0.222376	-0.011468	0.184087	0.123656	0.0360241	0.242947	0.0703146	0.00355304	-0.164326	0.209792	-0.0313266	0.604824	0.0312726	0.162576	-0.189884	0.389551	0.210242	0.173777	0.0856898	0.556262	0.157503	0.0763271	0.32271	0.0202648	0.258428	0.150799	0.25452	0.374889	0.285197	0.245327	0.187745	0.257789	-0.478416	-0.0618453	0.242994	0.221402	0.367562	0.362145	-0.325101	0.310291	0.103687	0.350389	0.499813	0.21882	-0.0379683	-0.119086	0.322515	0.141693	0.150938	0.183258	0.137521	0.206293	0.237601	0.0555696	0.0700577	0.0386049	0.3284	0.251651	0.213596	0.288767	0.122046	-0.0578157	0.332022	0.393908	0.0453454	0.239041	0.39513	0.088543	0.177674	0.221578	0.263831	0.0431335	0.381783	0.123704	0.441481	0.212486	-0.837475	0.343813	0.317706	0.0705284	0.179948	-0.578479	0.657428	0.563028	0.206679	0.663469	-0.309253	-0.614732	0.442213	-0.572729	0.0193205	0.169179	0.167955	0.276529	0.14096	-0.267315	0.407178	0.0264329	0.728679	0.662795	0.100824	-0.525355	-0.50209	-0.117325	-0.207368	0.267446	-0.462799	0.612837	-0.0643852	0.264032	0.142712	-0.223429	-0.228554	0.64002	-0.375238	0.931862	-0.110013	0.260504	0.258586	0.755276	0.33677	-0.440917	0.595565	0.256351	0.832349	-0.288343	-0.736206	-0.291683	0.511124	0.692431	-0.684591	0.10758	-0.237245	-1.22283	0.0838302	-0.1125	0.928006	0.522636	-0.193941	0.977933	0.510379	0.606331	0.85853	0.474098	-0.169831	-0.189036	0.709651	-0.370946	-0.386646	0.280645	0.536837	-0.63136	-0.129887	-0.16049	0.295068	-0.0604842	0.507773	0.971359	0.252647	-0.276651	0.101526	-0.196431	1.06163	1.00068	0.597356	0.265274	0.561714	-0.123698	0.0981819	0.0760009	0.615497	0.599021	0.670419	-0.214173	0.724478	0.128857	0.286507	-0.162329	0.695186	-0.258958	-0.573067	1.27307	1.95644	2.89537	-0.179189	3.10366	1.73503	-1.16565	1.76814	-4.42753	0.659082	-0.686913	2.45116	0.922685	-1.28489	-0.533091	-2.09707	1.97163	0.171709	2.16197	-0.67982	-1.28391	-1.41276	3.54496	-0.124734	1.69825	-0.540924	0.480389	0.624947	1.15599	0.284911	-0.0750073	-0.964047	0.155162	-1.03858	2.45104	0.918947	1.01465	2.21019	4.00672	0.584492	-1.65675	1.28116	0.655148	1.79534	0.166377	-0.0299632	0.0651101	0.887305	1.20081	-1.36374	3.28815	1.67928	-0.443102	0.581502	0.0581842	0.626458	3.83584	1.91334	2.64366	2.498	1.25733	1.36436	1.6416	-1.64014	1.41629	2.7654	-0.437688	-0.223671	0.364071	1.72561	-3.08942	-0.891469	-1.32713	-2.90156	0.366324	1.41317	0.678361	1.45585	-2.13628	1.05321	-0.170483	2.10805	2.76879	2.18052	0.467769	-0.497952	0.587881	0.780293	-0.829096	3.00352	3.66277	0.736144	0.707294	2.18596	0.548187	2.88996	-0.0902855	1.02543	-0.91251	0.212175	4.60783	6.3042	8.32024	0.928912	7.68026	4.83332	-0.25562	4.30995	-4.6358	4.6662	-0.536836	5.95205	2.53174	1.48959	-0.492659	-3.62001	1.97453	0.447901	5.41967	-1.40464	-1.16762	-0.434804	7.14866	2.10055	5.69589	1.75985	0.124141	1.05124	3.119	2.51451	2.85572	-0.413273	0.818219	-1.15052	5.93874	7.48397	3.96313	5.53941	10.6284	1.94039	-2.27123	3.41699	1.41591	4.78165	3.4393	2.17436	2.93996	4.40472	4.78442	2.03239	9.46943	3.46291	3.34641	4.74642	2.9018	3.70047	10.2316	4.04096	6.51962	4.92674	3.98207	6.04247	5.02737	-3.2261	2.19836	7.20077	1.41938	1.92426	2.59088	4.38144	-4.1345	0.453303	-1.45576	-6.89232	1.01452	3.41534	2.35423	4.84741	-2.45024	2.56883	-0.392586	4.88437	6.58043	4.61529	2.92103	1.25558	1.4586	2.62378	-0.0201556	7.20606	7.25004	2.13507	2.61195	5.70344	2.11951	6.15975	2.88016	2.76874	-1.31715	1.99635	3.62236	8.36433	11.5243	-0.422305	8.38651	4.70923	-3.50796	7.10535	5.09233	5.72044	1.32631	6.99322	2.51176	4.10929	-0.928627	1.29783	0.597728	4.31634	6.00202	-0.255683	-0.742343	-0.904512	4.60507	1.47293	6.6801	3.86859	3.13165	-0.575206	3.62178	3.12896	6.93601	0.191415	2.07739	-0.886432	7.77434	11.6806	6.01122	8.60218	13.2397	2.46661	-3.3268	3.94867	1.31434	5.90267	4.19009	1.34733	4.77179	7.14516	7.03458	5.04803	9.72033	-1.09865	0.851627	6.61488	3.98054	7.4392	10.4263	0.347614	9.75996	3.5783	5.54035	7.80678	7.14408	-2.9305	0.670828	10.4066	-0.491378	3.97418	4.24852	4.00569	-1.19941	1.72967	-0.0988619	-0.984677	2.25452	5.08512	6.14023	6.21279	3.73257	2.70343	-0.128676	6.63577	8.30279	3.39163	2.79724	5.29815	1.24141	2.99656	4.00615	8.73846	7.24097	5.47382	4.12793	7.5902	2.61914	-1.89314	3.31525	3.49961	4.43806	11.9238	-14.1381	1.13423	8.37446	-2.70618	14.8114	9.32663	0.584218	11.3107	1.64328	-3.56097	-6.01243	-0.0050719	4.7867	3.28027	-8.65979	-2.04648	-7.34444	-2.24565	9.4485	-1.10578	-2.91995	3.68845	8.37071	2.48155	-4.24678	-3.72395	4.48637	-6.12163	2.59575	-2.04401	-2.92296	-6.50993	0.241661	-7.53865	12.4351	-2.17082	2.96114	1.23115	12.8717	2.22608	-6.22095	6.42827	0.608386	2.52556	-11.5501	1.98988	-8.09147	0.260455	0.138544	-8.73975	1.25695	-2.44882	-19.8707	-0.988923	-7.30892	8.1959	13.1891	-2.02671	3.28763	8.26153	8.81047	12.6839	7.09078	-0.471639	-5.47043	7.89318	5.54998	-13.6052	1.31534	1.44148	0.0867446	3.91184	-1.92935	-8.63997	1.07877	4.45532	4.57991	6.15907	-13.0043	5.8842	-8.31318	4.9203	16.0098	8.97497	6.57819	0.801563	5.38109	2.00113	3.57401	9.65024	-2.799	6.21527	-11.0765	16.3337	3.14836	5.52908	-0.846518	6.45842	-12.5525	10.5377	-13.1641	-14.0871	6.02151	-13.3932	10.2645	16.1746	-0.656703	13.0561	5.35686	-12.6936	-12.5228	-0.986901	2.00036	-4.13395	-12.9852	-4.47918	-6.74225	-9.46004	1.71294	-3.43958	-2.07731	1.74969	15.787	0.593216	-14.5197	-6.44439	3.96378	-9.20995	-0.936931	-13.2848	-7.92381	-13.4941	-8.44728	-9.06168	4.56867	-12.6475	-3.16813	-0.51448	13.8681	-3.1166	-9.49104	-1.61404	-3.67128	-11.2946	-20.4551	4.95707	-13.1039	-12.0218	-16.296	-12.917	-10.7852	-8.4735	-31.3703	-10.2334	-17.9201	-3.72704	9.17291	-3.94342	-8.44738	6.48879	2.4947	0.204774	6.18493	-1.31325	-3.58261	1.47458	5.82714	-21.0157	-6.72386	-9.7335	2.31102	1.9219	-4.052	-12.2136	1.86147	2.5711	-6.80612	1.10993	-15.8346	5.97985	-10.0694	-7.98305	9.82717	2.49817	-0.445091	-7.82083	8.14435	-1.04439	2.23133	5.69015	-26.3389	4.44385	-16.0314	10.954	0.476586	-4.46668	-9.8223	-2.25658	-12.3616	9.71499	-11.1462	-12.9486	4.26121	-16.6678	0.283834	16.0262	-6.47871	7.81733	20.5624	-11.0663	-7.44621	-0.997045	-5.94821	-4.20561	-8.78223	7.32344	-7.5166	0.425358	-0.260458	3.38394	-0.155321	0.779495	1.91835	0.451171	-16.5108	-1.84514	0.0321548	-12.7003	-3.33806	-14.1536	4.26025	-10.0126	-5.39586	-5.69869	-0.436883	-11.1012	0.981857	4.25547	9.39277	-3.93804	-8.54357	-0.565966	-5.2623	-12.7875	-20.4953	4.81348	-5.37661	-10.9128	-10.2391	-6.32643	-10.9047	-16.636	-21.7202	-9.33689	-15.4626	0.792354	0.150868	-10.3064	-4.03539	-0.897291	-1.30678	-3.27619	6.26825	-2.42035	-6.25624	6.49435	2.55878	-11.6538	-5.72061	-5.2043	6.59885	1.59539	-3.26358	-4.33133	1.43053	5.95221	-4.77791	-0.798044	-3.04956	0.319779	-5.49916	-7.51425	1.69578	-4.68427	-4.10638	-0.568256	-0.982842	-2.28981	2.47935	5.32948	-13.9413	4.98909	-11.3829	6.53546	0.539387	-21.6874	-7.27787	-2.09057	0.446686	8.00241	-14.1849	-11.1675	-8.48139	-9.53606	-12.0972	1.80162	-3.64798	-8.35006	-7.85213	-22.625	1.35232	0.616202	-8.40955	-18.749	-4.3663	9.28559	4.22845	8.19221	-8.17804	0.764865	-2.7401	-4.37528	-6.51432	-7.75489	-17.1512	-6.83039	3.64741	-5.87105	-8.45775	-10.5418	-3.68121	-8.92452	-2.33814	-0.884137	-13.8519	-26.8607	-5.84516	-1.65527	-8.25448	-5.09134	-7.10812	-7.51543	-5.28458	-8.58147	-12.7796	-6.3278	-7.40118	-14.9046	-3.81532	-12.079	-11.7805	2.23276	-4.96541	-15.6518	-19.8811	-4.35073	-16.2578	0.414549	-0.909366	-1.23818	-10.172	-17.4123	-3.64395	-1.6295	-0.341775	-6.4913	-5.71662	-8.22091	-9.9899	-1.38216	1.17041	-3.93476	-6.75781	11.9342	-4.27595	1.95306	-4.29822	-11.3355	-6.01565	-4.23826	-2.03601	-5.89374	-16.2899	-7.29874	-10.5561	-5.7675	-11.6677	-6.60622	-8.92029	-4.4429	-3.76299	-7.84008	-9.70294	-10.1045	-3.92111	-0.155641	-6.18962	-9.4226	7.20934	-2.17914	1.91706	-7.47371	-1.97879	-4.41603	-3.18868	8.39992	-6.36051	-6.6977	-17.7653	-9.15061	-2.65301	8.25512	-4.9423	-15.4789	-5.01456	-0.966914	8.29484	1.80437	-1.18093	-4.05684	-4.75916	-5.52338	4.80991	-0.378173	-5.94436	-0.73336	-2.48631	3.64032	-3.85805	-8.09463	-1.57875	-8.96298	-5.99144	0.794699	-5.70708	-15.5723	1.2097	6.46617	6.99463	-2.77759	-11.4599	-1.35474	-2.9637	-7.72101	-7.94635	-6.63672	-3.10098	-12.2035	-7.22996	-1.54674	-4.13749	6.89227	-3.49733	-4.20972	-14.9491	-6.85108	0.201525	11.9975	1.41767	-0.852925	-4.69691	-11.516	0.660107	-3.85614	4.9379	4.8596	-4.58576	-5.38458	-7.06667	1.77364	-7.36921	-5.61112	-9.24593	-11.5947	-0.177127	0.421032	-5.31929	-2.43621	-8.09974	-3.43957	-0.11526	-5.65369	-8.67202	-3.48826	-6.73845	-7.78176	-6.94104	-2.3334	-8.5064	2.24926	1.82878	-4.88227	-4.60774	-2.08059	-3.16812	9.74767	-9.96154	-2.50888	1.27321	-32.4637	20.7429	-15.9553	6.05233	-16.964	20.7203	18.5434	-4.19799	11.8104	-33.123	2.86448	-19.0598	15.2388	10.6503	-13.6293	-8.81968	-30.0888	13.313	-25.7748	7.91912	-16.1267	-12.0778	-4.8118	40.8117	5.36944	5.19426	-6.25283	-14.5817	16.095	4.52301	-18.8917	-4.6247	-18.423	-19.8887	-4.07584	4.0682	-21.964	-1.08788	9.41941	33.4936	-1.89009	-11.0858	3.01807	2.6761	-14.784	-3.88074	8.95123	-2.11901	-22.6165	-40.3836	-2.77577	-4.18889	3.00642	-4.5197	4.08688	-21.9291	-29.3309	25.2824	13.7837	-5.02481	5.18632	4.26358	4.47085	5.50228	-13.8826	10.8596	9.31099	3.41224	-3.7639	-10.6391	-13.4436	-14.2681	-4.09313	-12.8901	-58.4498	5.86823	-0.760793	-21.8692	5.95091	-13.778	6.8788	-3.41727	-11.6352	7.60436	0.134416	-4.08715	-14.971	9.89621	3.59383	-8.34907	8.49235	-28.7318	4.37976	3.9925	9.44384	-5.51966	6.7125	-14.7255	1.5729	-7.52953	-19.7282	12.2911	-11.1607	10.3696	-14.9248	27.9334	21.912	5.77709	25.193	-10.0638	3.18821	-15.5692	8.40286	15.4852	1.81828	-7.89651	-25.7035	7.38853	-26.5238	8.78567	-6.455	-3.84275	2.30605	45.7901	5.84061	5.38279	-1.31555	-8.57638	12.2963	7.87751	-13.7684	-3.29621	-10.7743	-16.0349	-3.50254	12.3431	-10.2454	-0.507742	5.25314	35.634	-0.190003	-1.5855	2.54469	4.09163	-11.7181	-5.04735	23.0486	-2.66023	-12.8586	-28.1844	2.39031	-1.2219	-4.99521	-9.11702	5.10518	-9.0395	-22.5222	31.7641	5.55999	-7.31305	8.88996	9.26697	12.3133	5.78067	-3.59185	10.6419	8.06488	12.4525	-6.01833	-4.99067	-13.8893	-2.36836	4.12415	-2.75864	-44.418	7.96389	1.02981	-16.7594	10.8449	-6.6835	11.8488	-3.7018	-7.70706	23.2304	7.11939	3.8727	-9.1384	21.584	6.724	0.648241	10.4961	-39.6795	12.7728	5.28521	15.8232	1.33861	-0.945949	-6.71774	4.61895	-5.37086	6.71111	2.52035	-3.34452	10.7999	-1.09743	21.4062	20.0028	11.8291	19.6598	-1.32474	2.34848	-4.32686	2.48238	9.34203	4.89876	-5.55038	-11.7115	3.97597	-7.29161	7.40197	2.84535	7.01099	3.67281	34.1011	4.16278	-1.70897	4.22113	1.58824	6.02476	5.73374	-3.00361	-0.385707	-2.25978	-3.84401	-2.56953	14.7618	1.25033	0.995665	2.25976	25.5023	1.34277	1.01941	3.18286	3.41036	-5.63406	-6.5365	22.9004	-2.7616	-0.170681	-0.468623	1.7734	4.76977	1.69591	-10.444	4.23394	2.30123	-1.40102	26.0519	7.58375	-5.19	12.7013	9.1979	10.7048	5.7708	5.1304	13.3461	6.1458	14.1803	-8.5466	0.354902	2.27065	-3.05484	4.90182	1.32408	-19.2966	3.71105	3.149	-5.20382	10.2246	-6.2096	10.9788	-1.52665	-0.101287	25.1382	13.3401	7.73967	-1.30415	16.5903	5.52187	2.79749	12.8666	-24.1995	8.63563	2.59318	15.5035	8.60348	16.6111	0.749635	8.23043	-6.45436	-6.84782	0.34547	-4.20938	11.1812	-2.3302	15.6761	13.3682	2.40614	8.19215	-20.5934	0.452582	-10.6515	4.81908	7.57632	-1.6864	-4.55042	-17.6688	1.77255	-8.48838	6.77516	-2.95018	-7.43408	-0.763161	27.474	4.48884	-1.7987	-3.75406	-5.57486	4.29519	2.10743	-8.58635	-3.07402	-7.15193	-5.02659	-5.80791	9.45285	-12.1293	1.5548	2.03759	21.7663	0.576711	-4.56003	4.77391	1.88925	-4.20262	-10.4091	6.84435	-5.05354	-7.13434	-7.69626	-13.3283	-0.0949615	6.4844	-10.9681	-1.29383	-5.78213	-8.09215	19.1332	9.41892	1.9201	11.5945	6.89643	5.62752	5.45169	-5.06048	4.11824	7.26484	10.1751	-9.66929	-2.38884	2.90605	-9.65867	-1.83443	-6.38139	-25.6528	1.20575	3.9547	-9.20911	5.50525	-22.0184	7.22898	-5.60411	-0.512344	14.5807	11.5438	3.42403	-6.48897	5.91887	2.49356	-8.01733	12.5392	-20.4452	1.38227	-6.96426	11.0929	1.64066	22.5964	-4.9977	6.06384	-20.4263	-16.7591	12.2379	-16.97	3.63705	-9.98795	15.9908	10.9474	3.65166	9.58303	-19.3705	-1.04745	-14.1389	3.26217	8.69654	-11.6667	-5.57688	-23.9086	4.05083	-17.8432	2.25069	-10.337	-4.26794	-1.89768	32.5337	1.1342	-4.88985	-7.43188	-6.01484	7.65334	-0.177335	-14.7667	-9.36025	-11.8172	-14.3026	-5.13313	1.92931	-15.6991	-5.66028	-1.89594	11.7945	-3.2044	-3.67953	-2.60632	2.67055	-16.3379	-8.82228	9.96742	-7.62844	-16.1838	-26.1932	-7.66369	-4.49434	7.85835	-7.91694	-5.75804	-13.4806	-21.8936	12.2877	5.31869	-11.2525	7.81373	1.29264	0.444999	0.466718	-6.84271	7.99035	-4.31981	5.46194	-9.91568	-9.51052	-8.65616	-8.99023	-4.29549	-5.61439	-30.4993	3.2521	-3.4399	-20.0432	-1.32382	-19.5082	8.28224	-5.46068	-11.6899	6.91039	3.52361	-1.57046	-12.8488	8.98188	-0.0629928	-7.21365	3.77728	-35.2916	-1.61659	-3.14407	6.1004	-2.12587	14.5756	-9.42228	-1.08572	-13.9975	-0.926949	5.53312	-22.0438	-4.24022	-4.4525	-0.320307	3.35588	6.82089	3.70832	-19.3528	-15.7468	-5.28886	1.73528	3.09256	-21.7463	-3.89428	-13.6964	9.19952	-11.9092	-10.1602	-10.2792	5.37073	-5.25135	22.6002	-7.76798	-16.7084	-6.7023	5.54747	2.14329	-5.84721	-9.99836	-20.3434	-9.45195	-12.9644	-1.90299	-13.2989	-14.0444	-12.8165	-6.68113	-4.62609	-6.64389	-1.44314	-15.7452	-1.33502	-18.2566	-8.41369	5.0945	-11.6991	-16.1712	-20.2475	-5.59325	-18.1125	17.2744	-9.32126	-13.6745	-12.8096	-19.5626	-3.30483	8.92436	-17.0392	6.78646	-9.74568	-18.4078	-5.6732	0.765145	13.2126	-20.1663	-1.0413	-9.55736	-12.465	-10.8347	-5.0041	-6.15729	-3.42861	0.317506	-0.342214	-7.43876	-17.8432	-12.1328	-15.6186	4.72389	-2.78325	-14.9949	-11.2711	-2.88544	-9.47252	-16.2908	6.46757	-4.82897	-7.16811	-9.86178	-36.8735	-8.64514	-3.49057	-10.4944	-3.02609	20.7398	-8.80507	-15.0783	1.15974	1.68634	-2.87933	-13.5166	-3.33673	-1.10829	-0.708305	0.332737	4.9441	1.87169	-19.1054	-14.883	-0.390339	1.06251	5.15975	-16.3071	-3.13612	-8.97266	9.7769	-4.84955	-6.75262	-5.04245	2.65182	-5.41603	17.6699	-7.62238	-11.788	-7.44899	11.1491	1.79028	-4.15401	-6.6827	-16.9943	-6.9913	-6.6308	-3.38776	-8.35483	-12.8332	-10.1079	-7.31301	-3.35152	-4.26365	-1.03978	-10.6813	-0.157722	-10.1899	-7.13941	2.29602	-11.1858	-10.8922	-10.5748	-8.80343	-12.4119	16.3948	-11.0098	-12.6391	-9.75249	-12.8005	-3.49444	7.69694	-8.08379	7.70107	-5.7429	-15.2288	-5.28426	3.10496	10.7661	-16.7604	-0.685796	-9.13795	-9.55609	-6.72113	-4.32394	-4.57955	-2.9474	11.867	-1.4921	-4.40945	-10.0581	-8.53716	-13.1079	3.89515	-2.39608	-6.73523	-6.57759	0.967413	-6.21123	-12.432	6.14996	-3.58404	-4.72499	-6.14372	-24.8348	-6.07723	-3.31081	-9.06455	-1.46327	20.1625	-6.03283	-9.37658	-1.02939	-5.37474	-3.95859	-3.89142	-1.71875	-1.55965	0.301166	-1.86172	-0.457809	0.467372	-12.0039	-5.2323	-2.42057	-0.433522	4.03939	-4.76546	-1.90349	-5.07087	2.64322	-2.51059	-0.421597	-1.36541	-5.06089	-2.55825	6.38275	-2.24083	-3.13711	-7.90589	3.28112	1.67283	-1.21783	-4.90603	-7.23946	-4.30308	-1.23074	-4.46143	-1.14213	-13.1122	-3.74912	-3.54797	0.848027	-0.749641	-1.45651	-0.659375	1.06691	-1.7448	-5.38052	-3.36001	-6.28696	-5.65869	-8.27245	-7.40074	-5.25582	2.98835	-8.04515	-6.22774	-6.88531	-5.16772	-0.591019	0.496857	0.0217942	3.24803	-0.491002	-2.77026	-1.61651	-0.665764	0.290167	-3.81036	-0.947074	-6.15556	-3.67306	-3.01555	-2.36693	-1.97878	-2.78676	0.751049	-0.620467	0.278727	-2.43507	-3.00405	-8.42291	1.33879	-3.45617	0.858703	-0.292421	2.78001	-1.18549	-4.07713	2.25737	-1.50606	-3.46373	-0.666596	-10.8553	-1.45742	-4.89186	-0.419307	-1.92063	6.6115	-3.49897	-0.206257	-6.65948	-1.70238	2.06141	0.441267	0.489333	-0.227452	1.46643	0.478527	0.0560255	0.743301	0.882089	1.98536	-0.0532222	0.305405	0.916262	1.06521	-0.00987585	-0.57709	-0.0406155	-0.258931	1.1261	0.00859329	-0.397857	0.305531	1.22703	1.22522	1.57322	0.178414	-0.337533	1.40322	0.574399	-0.221214	1.10643	-0.131881	0.11108	0.158862	1.13802	0.412441	0.490618	0.587846	1.69771	0.338331	0.0365486	1.07682	0.695803	0.0388445	0.589451	0.579194	0.671301	0.127749	-1.17263	1.28572	1.5769	-0.438265	0.803191	1.00694	-0.0731319	-0.053645	1.27096	-0.129537	0.637204	-0.0209959	0.967661	1.98546	0.526498	-0.096442	0.0490053	1.08146	0.691417	0.266304	0.182312	-0.0712287	0.237092	0.434318	0.237852	-1.92157	0.516427	0.28591	0.117452	0.869967	0.868639	0.268538	0.0900373	0.485888	1.40462	0.513696	0.597754	0.580504	0.677845	0.407749	0.414816	0.970649	0.479481	0.93665	0.782106	1.24148	0.0443081	-0.419206	0.0725767	1.42373	-0.204424	-3.87602	1.24365	2.1409	1.14766	-0.166563	5.45681	0.0642209	1.24792	3.24854	-0.837619	5.12899	-1.94847	-0.49817	2.31202	4.69798	-0.754758	-3.07599	-2.0498	-2.24389	3.7795	-0.755303	-2.37168	0.855536	2.95662	2.33598	4.8767	-1.52376	-1.75409	2.12197	2.28676	-0.342367	-0.0224276	-0.925337	0.809665	-1.56707	5.19504	-0.072428	0.445594	-0.404635	3.8814	1.27835	0.409982	3.31318	1.91784	2.24799	1.20159	0.965197	-0.282888	0.898105	-1.69903	0.5665	3.66754	-2.52377	-0.178996	2.48753	0.377813	0.72388	4.74722	-1.29085	1.38045	1.1744	3.12342	7.31386	0.949756	-1.07578	-1.0623	2.59076	2.12203	-1.50892	0.961873	0.327089	-1.44079	1.10255	0.563526	-6.85052	0.324862	0.37778	1.24065	2.43094	-1.09872	1.01467	-1.48335	2.49319	7.07783	3.15856	3.46444	1.53622	2.19016	1.41065	0.804268	2.74125	0.448387	2.98409	0.376869	4.85776	0.520609	-0.591194	0.550648	4.28891	-4.68668	-0.44913	0.169982	0.991528	0.0558055	-0.248755	0.472627	-0.454104	-0.0868001	0.347146	2.35728	1.52684	0.577968	-0.211618	0.0267944	1.70665	0.025797	0.867171	-0.777572	0.806188	0.803583	0.303749	-0.52192	0.286279	-1.16245	0.541762	1.10052	0.23198	0.111659	0.542255	0.427959	0.165798	1.00778	0.22632	0.73173	-0.0177746	1.11846	0.425024	0.43331	0.298917	0.136535	0.399445	0.0467372	0.975899	0.47165	0.815893	0.192843	-0.519143	0.195066	0.782252	0.710227	0.888242	0.60711	-1.6702	-0.0915289	0.620698	0.293521	1.11621	-0.157856	-1.46186	0.890081	-0.65231	0.551286	1.74452	0.218727	0.124056	-0.971176	0.997532	-0.148344	0.2694	0.465177	0.18824	0.566259	0.476107	0.556412	0.365037	0.166456	0.190104	1.32304	0.639915	1.4342	-0.202363	0.0435857	0.98889	1.2707	0.197187	0.593237	1.15206	0.0623721	0.190746	0.915509	0.428568	1.13981	1.04033	0.310033	1.12016	0.0604103	-2.27889	0.273806	1.14946	0.418401	0.0122532	0.0398663	0.0247719	0.0497971	0.0366192	0.037083	0.0629994	0.0230049	0.0206977	0.0715781	0.00575884	0.0366588	0.0119388	0.0272286	0.072747	0.0676717	0.0216407	0.0940214	0.0723838	0.00564898	0.0862972	0.0965087	0.0788965	0.0342143	0.0861538	0.0506272	0.0244179	0.0671865	0.0991455	0.0144292	0.00924406	0.0302774	0.0182714	0.0484115	0.0833979	0.028956	0.0106113	0.0510086	0.00258187	0.0930052	0.046028	0.0849361	0.0117161	0.0385113	0.0737602	0.0599597	0.0590899	0.0378613	0.0749535	0.0877468	0.0943175	0.0383343	0.0693381	0.0744041	0.0532273	0.0199896	0.00408643	0.0663411	0.0827784	0.0334208	0.00306711	0.0150761	0.00912198	0.00801111	0.00452284	0.0766137	0.00199286	0.0713523	0.0654012	0.0110202	0.0384716	0.0703696	0.060387	0.0978149	0.0193091	0.0348827	0.0537797	0.0327982	0.0409162	0.0741478	0.0723716	0.0219886	0.0761406	0.0470168	0.0574053	0.0381939	0.0669424	0.0964019	0.0237587	0.0559526	0.0821345	0.0885739	0.00450453	0.0304056	0.0432661	0.0479934	0.00891751	0.035728	0.071807	0.0282785	0.0721061	0.0287637	0.0607318	0.00991241	0.0243385	0.0534989	0.0236732	0.0653493	0.0582781	0.0519303	0.0246956	0.08211	0.022129	0.0970702	0.0419019	0.0845454	0.0169286	0.0135868	0.0679189	0.0448134	0.0260475	0.0018128	0.00044557	0.0237739	0.0550432	0.0306619	0.025956	0.032371	0.010004	0.0151311	0.0496872	0.0541581	0.092468	0.0440138	0.0750511	0.0195715	0.0390881	0.0734031	0.085577	0.0726066	0.0841578	0.0516495	0.0325236	0.0204718	0.0730796	0.0914274	0.0812769	0.00690634	0.00496536	0.0544176	0.019657	0.0997314	0.0324625	0.0643941	0.0812922	0.0332926	0.0968963	0.0142033	0.0870998	0.0964293	0.0269387	0.0823359	0.0581256	0.00652791	0.0788537	0.024662	0.00274056	0.0604022	0.0464522	0.0570605	0.0314127	0.00248115	0.0189398	0.0943907	0.00211493	0.0010712	0.0146977	0.0616291	0.049556	0.0732078	0.0692007	0.0426374	0.00128483	0.0487686	0.00513627	0.0822962	0.0338725	0.0145146	0.0628956	0.00752586	0.0722312	0.0285623	0.0195166	0.0829615	0.0852321	0.0460646	0.0742576	0.0667318	0.0807459	0.0465896	0.0288797	0.0821345	0.0531968	0.00392468	0.0407727	0.0706992	0.0868221	0.088876	0.0770898	0.0423688	0.0676687	0.045674	0.0479324	0.0883389	0.00755028	0.0326792	0.0468337	0.0722373	0.033021	0.0679525	0.0765069	0.0652425	0.0425031	0.0703085	0.0881497	0.0407697	0.0847407	0.0365551	0.012299	0.0943663	0.0616199	0.0454421	0.00943937	0.00440687	0.00857265	0.0290139	0.0184332	0.0992553	0.0556108	0.00197455	0.0309763	0.0464644	0.0221625	0.0896695	0.070098	0.029725	0.0488327	0.0453352	0.000930815	0.0290719	0.019187	0.0972411	0.0518174	0.0700888	0.0747032	0.0163121	0.0738823	0.0576373	0.0760094	0.0449232	0.0172216	0.0598346	0.0135563	0.077398	0.0518296	0.057796	0.0208045	0.0329447	0.0113193	0.0268532	0.0930723	0.0115818	0.0877163	0.0648579	0.0652089	0.0736717	0.0552477	0.0331278	0.0511338	0.0337291	0.051442	0.0257729	0.0984588	0.0091464	0.0935392	0.0329264	0.0612354	0.014359	0.0583728	0.0135716	0.0440291	0.0412091	0.00389416	0.0435347	0.0203711	0.01601	0.0603687	0.0543321	0.0787835	0.0740471	0.0694601	0.028431	0.0994324	0.0420454	0.0992859	0.0666158	0.0146001	0.0692862	0.0135624	0.0930082	0.0560747	0.0979888	0.0229957	0.0134342	0.0425275	0.0135533	0.0970061	0.0927549	0.0101321	0.0653523	0.063918	0.0667043	0.0394055	0.098587	0.07781	0.0539903	0.0815027	0.0879727	0.0800073	0.0841792	0.0370281	0.0137669	0.0334971	0.00703452	0.0905332	0.0708213	0.0582842	0.0989349	0.0537706	0.0512436	0.045851	0.0319437	0.0209052	0.0913541	0.0808588	0.0212867	0.0887326	0.0234809	0.0481796	0.0166784	0.0450514	0.0233131	0.0534318	0.0532853	0.0783776	0.0933439	0.035081	0.027839	0.012009	0.0730857	0.0963134	0.0156224	0.0156804	0.0166814	0.0347087	0.0938444	0.0978423	0.0285073	0.0979431	0.0871242	0.0317576	0.097409	0.0435438	0.000646992	0.0185095	0.0202002	0.0309061	0.0566759	0.040022	0.0550615	0.0236518	0.0999451	0.0052736	0.0954039	0.0304483	0.087698	0.0428022	0.00490127	0.0624561	0.0298563	0.0425825	0.00428785	0.0354808	0.0950743	0.000503555	0.0504929	0.094995	0.0481582	0.0684561	0.0988189	0.338936	-0.338835	0.189249	0.349781	0.0232324	0.147462	0.284667	-0.0284997	0.247791	0.563836	0.104235	-0.0452136	0.0830028	-0.031211	0.261834	0.103871	0.231622	-0.090198	0.126421	0.108931	0.256913	0.26696	0.183143	-0.0122434	0.0561269	0.103697	0.288686	-0.102753	-0.302192	0.125755	0.170349	0.654271	0.261947	0.0624546	-0.0124071	0.136963	0.494727	0.281998	0.221084	0.331281	0.0904606	0.126396	0.199586	-0.00878468	0.0546138	0.155064	0.368212	0.470577	0.285381	0.319865	0.184594	0.255757	-0.300009	0.140618	0.252941	0.300562	0.339878	0.310951	-0.151888	0.178795	-0.0231962	0.138175	0.187654	0.267786	0.0607028	-0.0800513	0.347125	0.160665	0.289612	0.226467	0.121016	0.385117	0.179617	0.157727	-0.0933301	0.149697	0.205607	0.202026	0.233131	0.451063	0.0680059	0.1468	0.143026	0.173013	0.0115941	0.162143	0.368647	-0.016922	0.149364	0.265517	0.177995	0.125938	0.190947	0.157099	0.201168	0.180805	-0.573646	0.31516	0.103634	0.329105	1.0297	-0.847122	0.148906	0.458297	0.203484	-0.0487019	0.0502302	0.0739188	0.232552	-0.551364	-0.838834	0.163668	0.183934	0.074195	-0.173024	-0.11979	0.270639	0.302394	0.248563	-0.261272	0.0843881	0.0766085	-0.165175	0.364818	-0.304784	-0.588046	-0.0456563	0.697816	-0.427636	-0.0908513	0.0422036	-0.472322	-0.0312047	0.129522	-0.138457	-0.108405	-0.00555303	-0.100535	-0.0415528	0.21545	0.0729959	-0.15492	-0.293582	-0.15836	0.31393	-0.206148	-0.0699811	-0.216839	0.171126	0.835279	-0.496245	-0.366491	0.492404	-0.475631	-0.319153	0.108807	0.352796	0.183662	0.276535	0.284504	0.525115	-0.0116574	-0.569099	0.140797	0.137659	0.221769	-0.216506	0.0921239	-0.265217	0.00366764	0.277217	0.0750856	0.0743405	-0.136763	1.12579	-0.14849	0.25122	0.241124	-0.164158	-0.485911	0.282485	-0.209499	0.143372	-0.0530992	0.257508	-0.0762107	-0.0998415	0.0266653	-0.0229826	-0.146096	0.0061193	0.141222	-0.098378	-0.381976	-0.046537	0.0845807	0.7421	0.232801	-0.414626	0.00177529	0.0871106	0.0279389	0.23517	0.418075	-0.104033	0.253823	0.256875	-0.34072	0.240478	0.473636	0.188607	-0.0404324	0.13109	-0.0525494	0.0767619	-0.00773085	0.215122	-0.0692724	0.277199	0.382549	0.208375	-0.13547	0.0110109	-0.12048	0.0701568	0.117986	0.21352	-0.0639956	-0.112251	0.179401	0.0639258	0.585685	0.110529	0.168855	-0.0459278	0.394266	0.214269	0.339426	0.46053	0.39804	0.095192	-0.129912	0.332129	0.0657452	0.112174	-0.216633	-0.0919119	0.218363	0.186343	0.120884	-0.0255769	0.322091	-0.363985	-0.377495	0.108387	0.134597	0.356438	0.252213	-0.156289	0.416919	0.0112401	0.192106	0.249447	0.297763	-0.173538	-0.133865	0.639053	-0.0884552	0.164054	0.258447	0.162579	0.0523272	0.0386907	0.0221267	-0.380595	0.152779	0.292951	0.256816	0.269001	0.249884	0.0328055	0.0192294	0.309111	0.358065	0.09092	0.117756	0.283293	-0.0985528	0.156752	0.214651	0.448021	0.292393	0.30077	0.0647129	0.34418	0.137981	-0.522282	-0.0595165	0.266574	0.103458	-1.34788	-2.66348	-0.656383	2.83593	-2.5056	-0.592617	2.50882	-1.85868	0.827305	1.87905	-0.569805	-3.46446	1.71067	-0.885091	0.721307	0.404607	-0.437702	-1.25223	-1.90909	-0.150277	0.629215	-1.65451	0.860213	0.32893	0.950638	-0.400485	1.43082	-2.49729	-2.58053	0.0633318	-1.27331	3.81283	0.0362684	-1.53027	-0.578651	-1.13082	-0.141481	1.3371	2.02468	3.28719	-0.0539648	-0.458316	0.0557912	-1.30587	-0.757889	-1.12489	-0.0226168	2.40864	-1.13904	0.449142	-1.33842	-1.33521	-3.11304	-1.10984	0.188015	0.0679063	-1.06859	1.10222	-1.53441	1.03465	-0.779845	-0.775264	-2.01343	1.75536	-2.40703	-2.2774	3.1664	0.550905	1.45859	0.800976	-0.417019	2.35615	0.408972	-1.15417	-4.6627	0.938205	2.16677	-1.07646	1.02621	-0.434033	0.223004	-0.371523	-1.25564	-2.18065	-1.45512	-0.598602	0.382075	-1.26939	0.263348	-0.425343	0.802586	-1.3524	0.365328	-1.10591	0.363071	-0.424851	-5.29277	0.27616	-1.11006	-0.380477	-1.58551	-2.3426	-0.956404	3.31601	-2.9103	-0.928253	2.80903	-2.62725	0.964988	2.94473	-0.85335	-4.00996	2.01857	-1.13718	0.517083	0.490554	-0.318069	-1.62393	-2.33976	-0.552118	0.662657	-1.80582	0.726658	0.157408	1.05748	-0.633575	1.8548	-2.7605	-3.17564	-0.0969505	-1.44618	4.34958	0.08551	-1.97033	-0.326496	-1.65622	0.479982	1.6099	2.55669	3.41476	-0.185642	-0.787864	-0.235744	-1.68667	-1.13098	-1.33673	-0.234839	2.69467	-1.23361	0.476411	-1.24346	-1.84212	-3.48311	-1.38103	0.301884	-0.113053	-1.39497	0.903834	-1.73301	1.01637	-1.06845	-0.984266	-2.76071	2.07599	-2.64373	-2.61124	3.61973	0.445631	1.91898	0.948623	-0.884741	3.04866	0.380362	-1.20095	-4.99073	1.30137	2.3667	-1.3887	1.03008	-0.0045337	0.17131	-0.33906	-1.83765	-3.02607	-2.04538	-1.08986	0.479753	-1.48072	0.198615	-0.327356	0.579921	-1.75488	0.492961	-1.21318	0.0260115	-0.768016	-6.20601	0.126616	-1.61406	0.243088	-1.1362	-0.685217	0.348525	6.0625	-4.2974	1.018	4.25869	-4.29412	2.19931	-0.748487	-1.78937	-3.78905	4.55342	-0.761467	-1.98126	0.0184138	-1.63689	1.14844	-1.52702	0.354078	-0.299887	-2.46985	-1.22215	3.20015	0.191226	-0.431473	1.50913	-1.59271	-2.9099	0.192778	-2.08446	4.58031	-0.993018	-2.34349	-0.914677	-0.501328	1.58075	2.28099	4.88277	6.18963	-0.295989	-2.88776	-0.314015	-1.55578	-0.321794	-1.63402	-0.282341	2.62434	-0.535643	1.11811	-1.82119	0.555249	-1.62096	-1.47229	-0.470121	-0.399701	-1.31882	3.10865	-0.179282	3.46017	1.22222	-0.688285	-3.59281	3.11049	-3.87287	-1.04679	5.27339	-0.554387	2.02961	0.731065	0.213685	0.937205	-0.72171	-2.81898	-5.32333	1.80353	3.47656	-1.22029	1.62716	-1.18156	0.751662	-0.312225	-0.399191	-2.19474	-0.969304	-1.94874	-0.704662	-1.11751	0.358137	-1.37137	3.05393	1.95345	0.365003	-0.625363	0.589769	-0.41378	-5.25302	0.051088	-2.06959	1.20408	2.99709	-1.37217	7.54654	11.2901	-3.46856	5.88655	2.64439	-4.89932	4.70593	-1.60168	-0.263938	2.03833	6.85801	1.4825	0.2025	-1.3345	1.89484	2.46273	5.95694	4.39747	-0.238611	-2.96621	-2.74558	2.63046	-0.290778	2.16086	0.0494153	3.83431	-2.54716	1.91766	-0.564526	5.73409	-1.85949	2.87543	-2.356	5.24507	6.31122	4.29188	7.40071	11.2504	1.59675	-4.85147	2.62935	-0.0935762	5.98271	0.706397	-1.74145	3.20652	5.70923	6.8217	0.86233	5.66983	-1.13151	-1.19206	1.45672	0.873044	7.51201	7.09805	-0.782364	11.5275	5.15767	3.70011	4.33249	6.13706	-3.97532	-1.02891	8.02156	-1.91015	2.30272	2.75103	4.62081	-0.965411	0.85452	-2.52693	1.78951	1.25846	6.78945	6.40237	3.15704	0.0936387	1.77936	-1.12228	8.37742	3.42014	3.2832	0.337341	3.62526	-1.33558	1.2259	-0.0296983	7.77934	7.97491	3.30572	0.4202	5.20315	1.78378	-4.65329	3.73195	1.61067	3.51054	5.81761	-11.1919	12.3019	13.0125	-5.83866	2.68684	-6.93262	-15.4872	5.996	11.3091	-3.46896	9.99223	5.34463	0.32826	2.9233	-3.40259	17.2946	0.523658	20.5284	4.40018	3.48499	-7.09742	-8.77302	-11.8565	-5.48886	-0.151579	-4.20586	14.6485	-6.48374	1.44437	-1.74596	7.80903	-3.2851	10.8718	-4.91689	8.59677	3.99166	5.18906	10.0649	10.8234	2.77516	-9.32018	4.38117	-0.344184	12.159	-2.77664	-14.2584	0.955171	10.1799	10.1971	-1.47121	-1.27507	-13.887	-15.3587	-0.521921	-2.60685	19.1413	-0.316801	-12.2575	21.3407	2.38511	6.26884	7.65075	8.1403	-2.93547	-7.92678	11.0139	-11.9707	1.68961	4.62857	4.66346	1.35468	0.881995	-1.1888	23.5468	0.346633	11.2841	20.1511	0.864564	9.77218	-0.991588	-2.44245	17.4967	5.27555	2.06977	-2.0813	12.8833	-6.21829	-0.561853	5.80061	7.87689	10.4108	10.652	-1.3146	6.98381	0.786284	-22.662	1.78881	4.47627	14.0588	27.333	-27.57	6.28551	8.96394	-9.20846	2.62794	6.72648	-11.5926	9.38017	27.5543	-11.5534	7.33408	-2.69723	-6.01656	3.06524	-6.6174	24.7108	-3.91966	21.1581	6.74313	13.0425	4.65806	1.08955	-15.183	-6.10803	-15.0226	-0.837231	5.46953	-18.4502	-0.602431	-5.02834	22.7064	-1.7583	10.5133	-7.22914	10.948	-0.303762	9.39548	8.62361	10.5645	1.11548	-7.02703	6.77069	-3.72019	3.15385	-15.5201	2.75897	3.71961	8.18572	21.6253	-2.497	-0.462129	-22.1307	-21.5857	-1.04145	-2.09458	24.3887	3.21237	-17.5548	12.4175	-0.385851	8.34141	9.07663	9.47941	2.77472	-10.0747	14.3699	-3.85501	-1.76	4.26725	7.40602	10.8442	7.39268	-0.634891	17.6967	0.283858	11.7286	19.4116	3.18542	11.85	0.956248	-2.43479	12.4019	11.362	-0.00627217	1.18708	17.2669	-6.0087	-0.02719	10.2307	11.2348	3.507	11.2854	-6.74828	14.9633	8.523	-30.8731	7.07847	6.77962	14.5687	-0.741689	-3.78005	-14.0004	5.00263	-23.6029	2.46167	12.3274	-18.8763	6.22077	10.5718	-11.0018	-9.67968	4.46976	-7.03885	-11.2699	-9.86785	3.57433	5.88158	-3.44124	-0.306546	-4.29373	-2.16376	-4.13631	7.53879	-7.87428	-11.9632	-5.18691	-12.68	-13.5044	-1.23004	-20.0956	11.2641	-12.8099	-7.6899	-8.19485	-1.27351	-16.1688	2.25982	9.43319	16.5332	-4.50105	-10.0883	-2.46927	-8.10764	-12.9009	-9.73125	3.88689	4.2412	-11.5348	-18.3066	-2.03635	-4.91304	-24.0037	-21.0892	1.63407	-17.8826	-5.40006	6.26468	-8.98347	-3.36679	-8.36006	0.971937	-3.39954	8.5988	-9.51994	-0.598461	10.8575	-11.7308	-1.64657	-6.20005	-15.1223	4.2405	1.27138	-8.56978	-21.6147	1.68489	5.54298	-5.66195	-0.588719	5.08528	1.13235	-1.76064	-10.6616	-3.89055	-14.3325	-10.8193	2.40865	-4.23654	-1.77394	2.12786	3.48701	-28.4037	4.5524	-3.36564	3.4997	-1.73198	-37.962	-8.3596	-4.98472	15.306	-11.2421	21.6031	-18.3314	-2.06248	-26.4797	-4.01445	13.3965	-17.9937	-2.79225	25.1402	0.786416	-6.24966	8.41461	-10.3211	-9.85568	-7.04942	8.02313	9.55451	-1.77156	-2.72222	-4.50271	-2.48254	-1.17673	3.38304	-0.044529	-7.91297	1.68395	-17.8641	-3.7285	-3.62937	-23.1836	15.4505	-13.6608	-10.844	1.96993	-10.4377	-16.3057	4.21606	13.3809	12.1777	-7.32293	-8.15398	-3.15185	-8.23994	-21.3587	-4.49779	3.34659	10.0334	-16.6125	-24.3857	11.7501	-6.59433	-21.9197	-4.77358	6.02844	-22.086	-11.4263	-2.92156	-7.43771	-1.77274	-19.4099	-3.08002	-3.40632	6.09295	-9.76831	-1.3241	12.4	-11.045	6.97639	-11.3657	-19.1414	12.4897	1.81385	-6.86319	-23.2875	5.04529	3.25614	-11.3035	-0.112708	17.0464	-4.27546	4.66478	-19.6175	-17.3865	-24.5992	-15.0369	2.95101	-7.37084	-3.46402	3.68675	-0.669515	-29.597	2.82519	5.83041	-4.31431	-6.66113	-48.8632	-10.8155	-6.71918	28.2617	-22.4575	39.7979	-18.124	-11.2444	-20.5021	0.770894	6.08816	3.96231	-10.9539	3.86566	5.182	-5.08549	12.3115	1.45548	-3.82207	-10.1518	-7.44731	10.4288	-9.9535	-3.76298	-10.5318	-21.0852	2.66005	14.9722	16.5045	2.6872	0.591761	-8.8309	21.8161	-6.08326	-27.4143	-6.80495	-18.3281	-12.486	13.1046	-11.3607	-33.2159	-3.40694	5.42349	-1.72954	-7.67299	-13.0265	-3.94119	-0.886824	-22.3051	-9.64423	-12.6738	-5.6936	-24.15	-28.6898	14.2051	-12.622	0.12208	6.9183	-7.45972	-30.4999	-21.2063	-8.64178	1.56276	1.20518	-7.67575	-6.94432	-1.60015	-1.38857	-9.10958	-5.46992	3.48534	1.06158	-5.63713	-14.7421	-14.6003	16.3651	-0.607133	-6.06889	-23.8494	7.06926	-1.68356	-14.2381	-1.58389	-3.44949	-5.46353	-3.01603	-14.2163	-16.6086	-11.1633	-9.37346	-16.1614	-3.96917	-6.93167	-8.44081	1.6935	-45.951	-8.01403	-9.07238	-3.28274	-16.1005	-20.2818	-17.317	-7.04313	1.20185	-27.1104	45.06	-12.1648	-5.11292	-4.10082	5.16532	-7.1354	10.5449	-9.21881	4.12793	25.7099	12.8166	2.76434	5.04955	4.0909	-11.5243	-1.81079	0.195589	1.41712	3.21016	-12.379	-18.1499	-1.43122	9.47863	18.5096	11.5024	-0.281226	6.72752	31.1642	-5.69924	-20.0457	-15.5133	-12.0605	-2.0357	6.71881	3.9301	-9.27222	-2.05934	-1.40065	-9.80269	-3.92763	-11.4577	5.34801	5.19133	-14.1839	-6.00615	-23.867	-12.8463	-8.05496	-26.7764	28.6699	-9.54872	4.38313	4.15795	-0.670324	-13.1216	-3.47637	-8.36364	3.32544	-0.980574	-5.72245	-0.407356	17.4276	-6.38044	-2.33803	-1.4032	-5.03676	-4.19831	-11.2306	-10.7393	-7.03238	0.000455431	-4.031	4.16286	-5.1068	4.28261	-10.531	-2.4024	-7.82785	-2.4742	-6.4903	-6.03155	-4.38077	-0.0638486	-1.66918	-1.5352	-9.6713	-1.37182	-7.68639	-1.535	-1.82868	-31.8768	0.891991	-7.32875	6.55674	-10.2884	1.35357	-21.3487	8.29523	-6.87257	-25.4321	12.1894	5.04674	14.664	-12.0864	0.843948	-6.71445	-8.82913	-0.951466	4.73723	19.6308	4.7292	6.77469	-1.44459	10.7183	0.146421	-2.57257	-4.01226	3.78547	4.23778	-7.92834	-19.972	-3.00169	-2.51381	6.97847	14.9026	5.93531	-4.72665	10.9696	-2.18401	-5.90673	1.25976	1.71607	-2.22983	-0.290151	4.87287	6.65238	8.31227	9.9072	7.6357	1.94823	-9.85535	7.18362	1.79852	4.43202	1.90296	-17.4438	5.1374	3.27861	-22.145	17.091	-10.4057	-17.2535	15.4547	9.03052	4.03821	-3.29747	0.907021	-5.11596	15.0656	-6.56005	0.968126	7.78967	3.51321	-13.8533	-11.1514	14.8401	-7.96644	16.5037	5.14368	-1.61191	-3.26067	-0.74772	-3.2954	-10.2778	1.15335	0.305845	0.409438	2.33062	11.9137	-5.51513	-2.88173	2.71408	0.672609	-8.09148	-3.86547	4.77619	-7.78389	-3.04462	2.8109	6.97633	10.6752	4.75462	3.89925	3.82371	-6.89893	-34.0652	-7.54819	3.5568	5.16083	-24.4582	-5.07526	19.2663	25.5601	-22.15	6.58588	5.87216	-11.669	11.6398	23.5404	21.945	-2.23062	13.065	0.515462	30.1688	4.96612	-1.17897	-8.34466	4.83191	11.2453	1.66083	-24.215	4.85236	-1.52289	6.79969	19.8946	11.2791	-10.3063	4.67273	4.33579	-0.569707	20.388	6.24022	-0.753289	-1.29272	13.3124	7.2563	19.0791	20.2695	36.7428	6.21187	-4.30107	13.6005	2.65581	15.6392	2.85521	-7.82665	15.1958	5.77531	-10.4185	4.27102	-9.33753	-38.5385	6.51951	15.9985	7.0608	-2.91087	14.3315	-16.4955	33.0301	-9.08385	9.39738	13.7007	11.5665	-18.5162	-22.6017	36.724	-1.75975	26.0216	12.2996	-1.61871	7.016	10.5574	-3.45552	-13.4376	4.5535	13.2137	4.97532	20.1179	16.5636	-1.2475	-0.228723	8.04941	12.3463	-4.81423	2.61033	17.2549	-2.80026	4.61833	10.7138	20.3129	23.4477	17.3913	10.2773	10.2844	-1.86102	-64.7259	0.236707	10.1597	9.28752	-7.05185	4.23158	11.8237	11.4344	-8.94276	5.91671	8.28729	3.10453	10.7963	24.884	14.4487	4.27665	10.4863	2.37044	22.2186	1.90085	2.81337	-2.22067	8.46678	5.21615	5.68161	-12.4397	3.62336	8.35997	7.26077	8.16108	12.6608	7.2217	11.5246	2.66932	1.58081	8.83139	2.82109	1.2716	6.15677	9.61329	-0.882716	7.06218	11.4031	23.8284	3.29209	-2.69858	6.12691	4.72513	5.7773	-3.10016	-1.18957	6.60328	2.42423	5.42334	5.51649	-6.18881	-15.825	-1.86316	7.36022	1.62506	0.289496	10.755	-4.37099	19.2535	-0.186713	4.30365	5.31678	5.72215	-3.5812	-4.63405	20.9888	2.73935	11.3512	5.98706	5.42587	8.72255	7.80937	1.33379	6.20966	2.31475	7.4832	5.60295	15.0209	11.6716	2.41307	2.73917	6.09399	13.01	2.62946	3.46608	9.48529	1.09099	2.70801	8.66504	15.8303	3.5566	13.4163	8.32509	6.65107	-0.0957121	-29.05	0.00401359	8.14076	10.2799	10.3661	-25.0114	-